tree
version=v4
num_class=1
num_tree_per_iteration=1
label_index=0
max_feature_idx=140
objective=binary sigmoid:1
feature_names=ra_deg dec_deg pl_orbper_days pl_orbper_days_err1 pl_orbper_days_err2 pl_tranmid_bjd pl_trandur_hrs pl_depth_ppm pl_prad_re pl_insol_flux pl_eqt_k st_teff_k st_logg_cgs st_rad_rsun pl_prad_re_err1 pl_prad_re_err2 pl_depth_ppm_err1 pl_depth_ppm_err2 pl_trandur_hrs_err1 pl_trandur_hrs_err2 st_teff_k_err1 st_teff_k_err2 st_logg_cgs_err1 st_logg_cgs_err2 st_rad_rsun_err1 st_rad_rsun_err2 st_mag_kepler is_st_mag_kepler_missing is_disposition_score_missing is_fp_flag_nt_missing pl_impact is_pl_impact_missing is_k_fpflag_ss_missing is_k_fpflag_co_missing is_k_fpflag_ec_missing k_ror is_k_ror_missing k_ror_err1 is_k_ror_err1_missing k_ror_err2 is_k_ror_err2_missing k_srho is_k_srho_missing k_srho_err1 is_k_srho_err1_missing k_srho_err2 is_k_srho_err2_missing k_smass is_k_smass_missing k_smass_err1 is_k_smass_err1_missing k_smass_err2 is_k_smass_err2_missing k_sage is_k_sage_missing k_sage_err1 is_k_sage_err1_missing k_sage_err2 is_k_sage_err2_missing k_max_sngle_ev is_k_max_sngle_ev_missing k_max_mult_ev is_k_max_mult_ev_missing k_gmag is_k_gmag_missing st_mag_tess is_st_mag_tess_missing t_pmra is_t_pmra_missing t_pmra_err1 is_t_pmra_err1_missing t_pmra_err2 is_t_pmra_err2_missing t_pmdec is_t_pmdec_missing t_pmdec_err1 is_t_pmdec_err1_missing t_pmdec_err2 is_t_pmdec_err2_missing t_dist is_t_dist_missing t_dist_err1 is_t_dist_err1_missing t_dist_err2 is_t_dist_err2_missing a_sy_snum is_a_sy_snum_missing a_sy_pnum is_a_sy_pnum_missing a_sy_mnum is_a_sy_mnum_missing a_pl_masse is_a_pl_masse_missing a_pl_masse_err1 is_a_pl_masse_err1_missing a_pl_masse_err2 is_a_pl_masse_err2_missing a_pl_dens is_a_pl_dens_missing a_pl_dens_err1 is_a_pl_dens_err1_missing a_pl_dens_err2 is_a_pl_dens_err2_missing a_pl_orbeccen is_a_pl_orbeccen_missing a_pl_orbeccen_err1 is_a_pl_orbeccen_err1_missing a_pl_orbeccen_err2 is_a_pl_orbeccen_err2_missing a_pl_orbincl is_a_pl_orbincl_missing a_pl_orbincl_err1 is_a_pl_orbincl_err1_missing a_pl_orbincl_err2 is_a_pl_orbincl_err2_missing a_st_mass is_a_st_mass_missing a_st_mass_err1 is_a_st_mass_err1_missing a_st_mass_err2 is_a_st_mass_err2_missing a_st_age is_a_st_age_missing a_st_age_err1 is_a_st_age_err1_missing a_st_age_err2 is_a_st_age_err2_missing a_st_met is_a_st_met_missing a_st_met_err1 is_a_st_met_err1_missing a_st_met_err2 is_a_st_met_err2_missing a_st_dens is_a_st_dens_missing a_st_dens_err1 is_a_st_dens_err1_missing a_st_dens_err2 is_a_st_dens_err2_missing a_k2_campaigns_num is_a_k2_campaigns_num_missing
feature_infos=[-9999:359.94119499999999] [-9999:89.086922999999999] [-9999:129995.7784] [-9999:31600] [-22320:0] [-9999:2460777.4418970002] [-9999:90.010000000000005] [-9999:1541400] [-9999:200346] [-9999:10947554.550000001] [-9999:14667] [-9999:50000] [-9999:5.9606500000000002] [-9999:229.90799999999999] [-9999:320] [-9999:0] [-9999:9192.3909999999996] [-9999:-2.39e-06] [-9999:5.9000000000000004] [-9999:0] [-9999:1901] [-9999:0] [-9999:1.96411] [-9999:0] [-9999:18] [-9999:0] [-9999:20.003] [0:1] [0:1] [0:1] [-9999:100.806] [0:1] [0:1] [0:1] [0:1] [-9999:99.870650999999995] [0:1] [-9999:85.532319999999999] [0:1] [-9999:0] [0:1] [-9999:980.85419000000002] [0:1] [-9999:835.24225000000001] [0:1] [-9999:0] [0:1] [-9999:3.7349999999999999] [0:1] [-9999:1.375] [0:1] [-9999:0] [0:1] none [0:1] none [0:1] none [0:1] [-9999:22982.162] [0:1] [-9999:120049.67999999999] [0:1] [-9999:21.149999999999999] [0:1] [-9999:17.007000000000001] [0:1] [-9999:2074.52] [0:1] [-9999:8] [0:1] [-9999:-0.014999999999999999] [0:1] [-9999:1048.8399999999999] [0:1] [-9999:8] [0:1] [-9999:-0.016] [0:1] [-9999:11925.200000000001] [0:1] [-9999:3405.2199999999998] [0:1] none none [-1:3] [0:1] [-1:7] [0:1] [-1:0] [0:1] [-9999:4131.79] [0:1] [-9999:731.00900000000001] [0:1] [-9999:-0.012] [0:1] [-9999:40] [0:1] [-9999:12] [0:1] [-9999:-0.012999999999999999] [0:1] [-9999:0.85299999999999998] [0:1] [-9999:0.40000000000000002] [0:1] [-9999:0] [0:1] [-9999:140.52000000000001] [0:1] [-9999:56.23169] [0:1] [-9999:-0.0051000000000000004] [0:1] [-9999:14.336] [0:1] [-9999:7.8540000000000001] [0:1] [-9999:-0.0023] [0:1] [-9999:13.5] [0:1] [-9999:7] [0:1] [-9999:-0.0012999999999999999] [0:1] [-9999:0.48599999999999999] [0:1] [-9999:0.95999999999999996] [0:1] [-9999:-0.0057999999999999996] [0:1] [-9999:84.530788000000001] [0:1] [-9999:11.290143] [0:1] [-9999:-0.00029999999999999997] [0:1] [-1:3] [0:1]
tree_sizes=3049 3457 3453 3442 3454 3448 3457 3459 3473 3453 3462 3465 3466 3456 3448 3428 3457 3465 3468 3469 3456 3473 3458 3470 3484 3471 3459 3470 3455 3468 3487 3446 3480 3468 3499 3479 3487 3486 3488 3468 3460 3495 3488 3467 3480 3486 3476 3491 3474 3479 3462 3451 3460 3469 3479 3468 3496 3478 3488 3472 3466 3474 3491 3489 3478 3484 3471 3470 3494 3485 3480 3489 3467 3489 3464 3468 3470 3498 3464 3454 3485 3487 3486 3480 3480 3479 3474 3484 3511 3490 3475 3472 3481 3484 3488 3434 3476 3485 3440 3484 3456 3495 3481 3466 3475 3506 3501 3510 3491 3460 3467 3495 3504 3489 3485 3475 3518 3466 3495 3440 3502 3472 3479 3492 3463 3488 3457 3453 3469 3462 3466 3470 3466 3482 3464 3457 3460 3486 3457 3491 3482 3476 3479 3486 3490 3476 3477 3475 3486 3478 3450 3487 3462 3457 3454 3474 3489 3450 3462 3473 3470 3467 3447 3462 3444 3454 3466 3437 3470 3504 3450 3472 3437 3478 3456 3446 3474 3474 3422 3458 3471 3477 3463 3466 3444 3483 3450 3478 3453 3471 3467 3472 3447 3438 3494 3463 3463 3459 3491 3400 3440 3453 3447 3462 3445 3439 3441 3426 3441 3442 3476 3431 3485 3429 3482 3434 3385 3441 3458 3435 3455 3421 3456 3437 3486 3445 3472 3454 3466 3397 3436 3441 3418 3429 3432 3489 3436 3462 3425 3422 3434 3432 3466 3496 3469 3455 3434 3424 3416 3491 3424 3459 3451 3486 3416 3413 3455 3425 3456 3444 3433 3429 3437 3450 3429 3446 3490 3422 3436 3441 3437 3439 3463 3411 3433 3413 3453 3420 3432 3421 3413 3409 3426 3425 3478 3453 3456 3422 3444 3495 3433 3429 3433 3434 3507 3452 3449 3470 3406 3426 3408 3485 3459 3406 3405 3437 3428 3490 3429 3422 3436 3430 3429 3430 3438 3422 3423 3450 3455 3425 3471 3421 3452 3407 3438 3489 3443 3422 3416 3438 3431 3467 3423 3411 3421 3440 3420 3432 3458 3455 3458 3418 3473 3445 3435 3388 3464 3437 3458 3421 3439 3441 3431 3501 3432 3443 3416 3438 3413 3425 3419 3457 3453 3421 3442 3430 3432 3481 3446 3418 3415 3436 3432 3409 3428 3408 3467 3513 3417 3439 3428 3442 3434 3436 3416 3414 3409 3424 3419 3499 3465 3409 3414 3486 3408 3453 3427 3432 3443 3426 3453 3433 3439 3431 3424 3418 3436 3387 3423 3474 3441 3413 3428 3423 3445 3442 3428 3421 3416 3456 3412 3436 3453 3420 3494 3403 3436 3418 3414 3418 3417 3433 3435 3431 3441 3435 3476 3408 3431 3465 3390 3453 3454 3441 3409 3418 3436 3452 3466 3413 3431 3418 3426 3419 3426 3463 3440 3461 3474 3395 3440 3416 3442 3431 3386 3404 3428 3484 3421 3397 3429 3446 3415 3474 3405 3425 3431 3435 3437 3433 3413 3401 3430 3420 3425 3484 3426 3417 3442 3405 3440 3459 3406 3417 3420 3415 3417 3457 3433 3459 3411 3392 3412 3427 3439 3406 3430 3448 3481 3419 3444 3445 3473 3438 3407 3382 3436 3460 3417 3461 3432 3396 3440 3408 3409 3455 3405 3407 3430 3450 3454 3439 3452 3430 3437 3460 3421 3413 3428 3428 3415 3418 3412 3458 3460 3415 3399 3430 3403 3418 3425 3433 3405 3421 3452 3406 3432 3412 3434 3403 3426 3426 3419 3428 3434 3431 3416 3423 3413 3438 3420 3499 3457 3418 3441 3434 3420 3449 3419 3413 3434 3451 3427 3440 3441 3425 3432 3436 3408 3448 3429 3405 3419 3394 3405 3426 3435 3410 3445 3452 3440 3487 3428 3465 3438 3439 3433 3433 3411 3423 3430 3446 3431 3449 3428 3472 3439 3423 3441 3425 3421 3435 3413 3437 3439 3436 3435 3434 3412 3446 3461 3413 3434 3431 3429 3437 3443 3458 3420 3433 3438 3425 3456 3409 3442 3420 3413 3411 3448 3417 3454 3451 3421 3383 3442 3480 3414 3435 3427 3411 3387 3451 3420 3438 3468 3436 3433 3428 3418 3423 3418 3404 3450 3508 3465 3425 3420 3415 3419 3400 3437 3455 3424 3422 3454 3428 3406 3433 3421 3446 3441 3434 3414 3438 3414 3479 3456 3403 3401 3451 3419 3425 3457 3423 3410 3430 3404 3424 3460 3451 3417 3432 3437 3474 3404 3425 3410 3449 3439 3420 3415 3420 3425 3432 3462 3442 3420 3428 3426 3459 3414 3449 3430 3413 3427 3437 3435 3431 3428 3432 3426 3431 3450 3411 3436 3410 3441 3477 3432 3426 3401 3434 3412 3447 3432 3440 3417 3425 3445 3399 3461 3437 3416 3453 3432 3467 3463 3426 3435 3426 3451 3443 3448 3471 3416 3454 3406 3427 3436 3423 3415 3433 3390 3434 3430 3408 3437 3419 3407 3453 3446 3443 3404 3437 3428 3410 3405 3457 3424 3408 3403 3408 3443 3429 3438 3414 3418 3466 3436 3431 3496 3432 3441 3432 3399 3429 3422 3440 3420 3433 3417 3457 3429 3425 3424 3443 3417 3458 3397 3458 3420 3414 3438 3431 3452 3424 3457 3434 3450 3456 3433 3462 3413 3402 3423 3437 3425 3435 3432 3426 3419 3414 3428 3436 3419 3445 3430 3439 3485 3456 3440 3427 3447 3439 3437 3419 3409 3426 3444 3434 3446 3483 3452 3438 3406 3400 3414 3448 3448 3435 3415 3418 3422 3443 3417 3416 3440 3427 3403 3416 3446 3456 3443 3450 3408 3494 3424 3414 3422 3471 3447 3437 3427 3434 3446 3444 3412 3383 3412 3456 3438 3439 3411 3446 3445 3474 3399 3405 3459 3427 3446 3390 3472 3430 3429 3429 3451 3423 3447 3448 3442 3450 3428 3397 3441 3427 3427 3443 3408 3444 3454 3436 3461 3437 3443 3460 3433 3417 3444 3441 3420 3393 3459 3425 3447 3450 3412 3442 3423 3438 3410 3425 3452 3425 3431 3466 3374 3438 3446 3434 3445 3426 3455 3423 3422 3440 3445 3437 3428 3443 3436 3455 3445 3433 3430 3443 3444 3430 3429 3454 3436 3398 3409 3437 3443 3435 3437 3449 3401 3461

Tree=0
num_leaves=31
num_cat=0
split_feature=35 9 87 4 2 49 5 1 49 8 45 43 7 75 65 79 5 6 49 15 8 18 17 7 41 12 41 7 5 23
split_gain=3670.84 1743.41 1011.21 1087.26 470.512 310.776 285.336 265.119 235.524 208.114 208.506 148.471 90.0304 76.1993 72.0429 144.952 121.665 91.2101 90.1958 65.341 65.2321 64.5536 63.957 63.156 63.0418 62.252 61.8148 53.3245 52.9578 53.8308
threshold=0.10195850000000002 1875.0458707500002 1.0000000180025095e-35 -0.0033159999999999995 2.2457862885000006 0.15450000000000003 2459169.5617950005 10.821131050000002 0.065500000000000017 18.420927645000003 -0.033079999999999991 0.064420000000000019 3580.5746961500004 0.039500000000000007 12.464450000000001 143.16100000000003 2459035.1775295003 1.9151000000000002 0.081500000000000017 -4.7499999999999991 14.296450000000002 0.014700000000000001 -0.010136194999999999 2237.5000000000005 1.3404000000000003 4.3300250000000009 0.22253000000000003 0.16435000000000002 2458843.4881940004 -0.070501499999999981
decision_type=2 2 2 2 2 2 2 2 2 2 2 2 2 2 2 2 2 2 2 2 2 2 2 2 2 2 2 2 2 2
left_child=1 2 3 7 8 9 19 27 22 10 14 26 -8 -11 15 18 -17 -18 23 -3 24 28 -5 -6 -2 -20 -12 -1 29 -9
right_child=20 6 -4 4 5 -7 12 21 -10 13 11 -13 -14 -15 -16 16 17 -19 25 -21 -22 -23 -24 -25 -26 -27 -28 -29 -30 -31
leaf_value=0.051608391608391604 -0.043278688524590166 -0.046964856230031944 0.059999999999999998 0.0029953198127925119 0.046462715105162519 -0.011159029649595687 -0.022499999999999999 -0.033425414364640881 -0.042132796780684108 0.017288135593220341 -0.049140271493212664 0.024246575342465753 0.012301255230125523 -0.02903225806451613 0.045650459921156371 -0.012440944881889763 -0.0058333333333333336 0.031140290255701447 0.044534606205250592 0.054782608695652171 -0.057089228992203291 0.041739130434782605 0.059999999999999998 0.01748344370860927 0.03509433962264151 0.017041420118343194 0.050399999999999993 0.0074285714285714285 0.021739130434782608 0.016097560975609757
leaf_weight=35.75 30.5 469.5 460.75 320.5 653.75 185.5 152 543 124.25 59 55.25 73 119.5 69.75 380.5 95.25 72 361.75 104.75 5.7499999999999991 865.75 11.499999999999998 18.75 75.5 13.249999999999998 253.5 6.2499999999999991 78.75 17.25 20.5
leaf_count=143 122 1878 1843 1282 2615 742 608 2172 497 236 221 292 478 279 1522 381 288 1447 419 23 3463 46 75 302 53 1014 25 315 69 82
internal_value=0 0.010424 0.0181431 0.0128097 0.0209178 0.0261699 -0.0317174 -0.020566 -0.00679612 0.0292335 0.0314708 -0.00468401 -0.00718232 -0.00780583 0.0339059 0.0311414 0.0182609 0.0250029 0.0374069 -0.0457338 -0.0552831 -0.028645 0.00614591 0.0434625 -0.0195429 0.0250803 -0.0390244 0.0212227 -0.0300387 -0.0316238
internal_weight=5733 4823.5 4076.75 3616 2909.25 2445.75 746.75 706.75 463.5 2260.25 2131.5 134.5 271.5 128.75 1997 1616.5 529 433.75 1087.5 475.25 909.5 592.25 339.25 729.25 43.75 358.25 61.5 114.5 580.75 563.5
internal_count=22932 19294 16307 14464 11637 9783 2987 2827 1854 9041 8526 538 1086 515 7988 6466 2116 1735 4350 1901 3638 2369 1357 2917 175 1433 246 458 2323 2254
is_linear=0
shrinkage=0.03


Tree=1
num_leaves=31
num_cat=0
split_feature=35 9 87 4 2 49 5 1 49 8 45 43 7 75 75 65 8 13 6 8 18 17 41 15 41 45 3 5 7 5
split_gain=3456.46 1641.51 956.793 1024.03 454.793 289.242 260.069 250.275 227.978 194.799 200.534 142.583 86.6876 71.7142 71.2936 91.1019 74.9441 69.6345 88.2498 61.4765 60.8701 59.8978 59.3424 59.0315 53.925 51.1956 56.3918 57.2429 50.2284 49.9654
threshold=0.10195850000000002 1919.1650000000002 1.0000000180025095e-35 -0.0033159999999999995 2.2457862885000006 0.15150000000000002 2459169.5617950005 10.821131050000002 0.065500000000000017 18.420927645000003 -0.034564999999999992 0.064420000000000019 3580.5746961500004 0.039500000000000007 0.097500000000000017 11.256900000000002 1.0403977000000002 2.0405000000000002 3.0022000000000006 14.296450000000002 0.014700000000000001 -0.010136194999999999 1.3404000000000003 -4.7499999999999991 0.10543500000000001 -0.42103999999999991 2.8185000000000005e-05 2459844.6969730007 0.16435000000000002 2458843.4881940004
decision_type=2 2 2 2 2 2 2 2 2 2 2 2 2 2 2 2 2 2 2 2 2 2 2 2 2 2 2 2 2 2
left_child=1 2 3 7 8 9 23 28 21 10 14 24 -8 -11 16 -16 -6 -18 -19 22 29 25 -2 -3 -12 26 -5 -28 -1 -9
right_child=19 6 -4 4 5 -7 12 20 -10 13 11 -13 -14 -15 15 -17 17 18 -20 -21 -22 -23 -24 -25 -26 -27 27 -29 -30 -31
leaf_value=0.050093821599146937 -0.042000192804777826 -0.045964476975696597 0.058253012992315403 0.015426333679793102 0.015218952297334817 -0.0089018795040620002 -0.02280617424374598 -0.030745308992492556 -0.040551942982317006 0.017100935323104562 -0.050947074080818687 0.023256673872273689 0.011631406184609366 -0.027853658670983654 -0.01043813905947649 0.034602770577408258 0.03821844893576952 -0.023451508033549083 0.035256379171688439 -0.055422152130892029 0.040504775902300359 0.058252932832028585 0.034052102287693682 0.052942087641904841 0.024453439589324704 -0.036076496863523939 -0.023212599485573155 0.04276737908059218 0.0072058132699562606 0.021089473145741021
leaf_weight=35.726206749677658 30.48572188615799 459.74643707275391 460.58539827167988 204.99928744137287 160.44059327244759 202.99104073643684 149.48108217120171 564.59635123610497 130.1915707141161 58.745627224445343 51.219073832035065 74.988072574138641 117.4955527484417 69.985294044017792 74.235931009054184 88.715546518564224 1561.4165817797184 38.24411079287529 57.981518909335136 865.0449520200491 11.49499276280403 18.733135610818863 13.245920881628988 5.4958756268024436 10.243919014930723 27.499800473451614 76.499415010213852 13.999968290328978 78.74891571700573 17.247962146997452
leaf_count=143 122 1840 1844 820 642 812 598 2259 521 235 205 300 470 280 297 355 6248 153 232 3463 46 75 53 22 41 110 306 56 315 69
internal_value=-6.64827e-09 0.010115 0.0175217 0.0123521 0.0201967 0.0253928 -0.0312523 -0.0200225 -0.00677012 0.028492 0.0306703 -0.00450704 -0.00765031 -0.00733888 0.0330933 0.0140834 0.0347971 0.036692 0.0119234 -0.0536678 -0.0278582 0.00609994 -0.0189646 -0.0447961 -0.0383802 0.00307519 0.00671874 -0.0130057 0.0205906 -0.0292087
internal_weight=5730.53 4821.75 4089.53 3628.94 2921.13 2449.21 732.219 707.814 471.923 2246.22 2117.49 136.451 266.977 128.731 1981.03 162.951 1818.08 1657.64 96.2256 908.777 593.339 341.732 43.7316 465.242 61.463 322.998 295.499 90.4994 114.475 581.844
internal_count=22932 19294 16364 14520 11688 9800 2930 2832 1888 8988 8473 546 1068 515 7927 652 7275 6633 385 3638 2374 1367 175 1862 246 1292 1182 362 458 2328
is_linear=0
shrinkage=0.03


Tree=2
num_leaves=31
num_cat=0
split_feature=35 9 87 4 2 49 5 1 49 8 45 43 7 2 7 75 75 6 8 16 17 41 15 41 65 6 7 5 23 133
split_gain=3259.18 1546.16 903.737 964.266 428.325 273.088 245.453 235.66 214.788 186.404 184.771 134.031 81.5939 67.1039 84.2247 66.238 64.9914 63.7724 58.1152 57.3536 56.5317 55.9073 55.6375 52.4486 51.5438 49.053 47.4113 47.1075 49.107 51.7596
threshold=0.10195850000000002 1919.1650000000002 1.0000000180025095e-35 -0.0033159999999999995 2.2457862885000006 0.15450000000000003 2459169.5617950005 10.821131050000002 0.065500000000000017 18.420927645000003 -0.034564999999999992 0.064420000000000019 3580.5746961500004 3.0127909410000004 5118.361022000001 0.098500000000000018 0.039500000000000007 2.2555000000000001 14.296450000000002 0.0012901550000000001 -0.010136194999999999 1.3404000000000003 -4.7499999999999991 0.10543500000000001 11.545250000000001 3.1716500000000005 0.16435000000000002 2458843.4881940004 -0.070501499999999981 1.2316515000000001
decision_type=2 2 2 2 2 2 2 2 2 2 2 2 2 2 2 2 2 2 2 2 2 2 2 2 2 2 2 2 2 2
left_child=1 2 3 7 8 9 22 26 20 10 13 23 -8 14 17 -15 -11 -6 21 27 25 -2 -3 -12 -17 -5 -1 28 -9 -30
right_child=18 6 -4 4 5 -7 12 19 -10 16 11 -13 -14 15 -16 24 -18 -19 -20 -21 -22 -23 -24 -25 -26 -27 -28 -29 29 -31
leaf_value=0.048685628559136884 -0.04079595298035562 -0.044658227114780659 0.056654212619549574 0.0063511854739190209 0.018999132615785314 -0.010267413573853057 -0.022130660333439269 -0.031585456232165583 -0.03938604166030877 0.015622726228815862 -0.049017878028754694 0.022781472641654338 0.011283670388237984 0.035518472388281187 0.03986024531882329 -0.0045398354948232404 -0.027034380456238936 -0.023729676720673366 -0.053887620800048469 0.037930211786823112 0.05665414057313068 0.033060258939398082 0.051465857618884309 0.024562714560324835 0.03255497662954196 -0.037605353067679356 0.0069899215923643924 0.020463850217945168 0.057833831311070741 -0.038991238566832634
leaf_weight=35.657716453075409 30.444614589214325 459.00831341743469 459.39218758046627 298.21415424346924 73.919007122516632 186.23075145483017 149.42331284284592 543.43941633403301 130.0263993293047 59.48266127705574 51.621445089578629 76.206158339977264 117.48317748308182 1648.5790003687143 81.140516251325607 68.737377166748047 69.943589434027672 54.698963463306427 863.01593302190304 11.980634510517119 18.684603273868561 13.234174758195875 5.4840745627880088 10.490450039505957 66.162412628531456 24.744544848799706 78.745784908533096 17.24209226667881 11.499383091926576 8.749530613422392
leaf_count=143 122 1840 1844 1193 296 745 598 2176 521 238 207 305 470 6603 325 275 280 219 3463 48 75 53 22 42 265 99 315 69 46 35
internal_value=-7.47154e-08 0.00982148 0.0170128 0.0119908 0.0196062 0.0246514 -0.0303493 -0.0194357 -0.00657066 0.0275276 0.0296502 -0.00387955 -0.00742281 0.0319769 0.0159264 0.0338646 -0.00742972 0.000827321 -0.0521789 -0.0270422 0.00591859 -0.0184184 -0.0435233 -0.0365904 0.0136535 0.00298331 0.0199858 -0.0283821 -0.0298762 0.0159958
internal_weight=5723.68 4816.99 4085.59 3626.2 2918.88 2447.21 731.399 707.315 471.67 2260.98 2131.56 138.318 266.906 1993.24 209.758 1783.48 129.426 128.618 906.695 592.911 341.643 43.6788 464.492 62.1119 134.9 322.959 114.404 580.93 563.688 20.2489
internal_count=22932 19294 16364 14520 11688 9800 2930 2832 1888 9055 8537 554 1068 7983 840 7143 518 515 3638 2374 1367 175 1862 249 540 1292 458 2326 2257 81
is_linear=0
shrinkage=0.03


Tree=3
num_leaves=31
num_cat=0
split_feature=35 9 15 4 2 87 5 8 49 45 1 41 5 6 4 7 2 2 5 3 5 8 41 15 12 65 49 6 65 18
split_gain=3077.11 1457.27 860.802 694.689 457.997 384.23 232.086 213.131 221.153 177.927 155.904 115.164 102.155 83.3837 81.9881 76.8166 66.0625 61.6043 120.167 55.1261 68.9464 55.0923 52.7116 52.4924 51.0964 56.4326 49.9572 49.9221 48.5705 48.0752
threshold=0.10195850000000002 1919.1650000000002 -11.899999999999999 -0.0015994999999999998 2.2457862885000006 1.0000000180025095e-35 2459169.5617950005 18.420927645000003 0.094500000000000015 -0.57900999999999991 10.821131050000002 0.060780000000000008 2458843.4881940004 3.4511000000000007 -0.00021619999999999997 3580.5746961500004 4.3037277000000005 37.970925350000009 2459313.6037025005 1.5505000000000005e-05 2459844.6969730007 14.296450000000002 1.3404000000000003 -4.7499999999999991 4.0202300000000006 11.880450000000002 0.065500000000000017 9.3080500000000015 12.2872 0.019061700000000004
decision_type=2 2 2 2 2 2 2 2 2 2 2 2 2 2 2 2 2 2 2 2 2 2 2 2 2 2 2 2 2 2
left_child=1 2 3 5 9 10 23 8 14 19 -1 -10 -12 -13 17 -8 -15 18 -6 26 -21 22 -2 -3 25 -16 -5 -26 29 -9
right_child=21 6 -4 4 7 -7 15 28 11 -11 12 13 -14 16 24 -17 -18 -19 -20 20 -22 -23 -24 -25 27 -27 -28 -29 -30 -31
leaf_value=0.0118489343434582 -0.039658620749990874 -0.043431595713982162 0.051840945845426936 0.016424021497698438 -0.0074038407420244914 0.05518604733712671 -0.021480325888714309 -0.03517590569131808 -0.028760091268179758 -0.04231499146212904 -0.026319380849993704 -8.7560813998289761e-05 0.028646951217552112 -0.027722980126624237 0.007610087380057709 0.010947013104865455 0.032387678617938905 0.040425588048346409 0.036269124289605395 -0.026660460165244228 0.041513782618830548 -0.052470284907894994 0.032114528505455653 0.050095839900365292 0.038340008130932725 0.038261574942992212 -0.021449757617653761 -0.024630564319779096 0.016209340367765484 0.026818607320838846
leaf_weight=132.7813026458025 30.379121422767639 457.8298544883728 539.16302433609962 188.17650499939919 140.16075019538403 70.459739148616791 149.33015835285187 75.144955173134804 64.841389983892441 109.67525112628937 642.33953538537025 190.24974289536476 31.943644747138023 17.982708677649498 117.02643771469593 117.46357455849648 193.67513248324394 82.240611582994461 95.226768434047699 87.934717565774918 15.740907683968542 859.78467382490635 13.215457409620283 5.4653019607067099 1087.5991765707731 100.4705632776022 37.609267979860306 11.450073167681692 34.214525863528252 13.241718560457228
leaf_count=532 122 1840 2170 753 562 284 598 301 260 440 2575 762 128 72 469 470 776 330 382 352 63 3463 53 22 4363 403 151 46 137 53
internal_value=-1.98803e-07 0.00954216 0.0165283 0.0111503 0.0187794 -0.0119987 -0.0294927 0.0243087 0.0265524 -0.0092179 -0.0178642 0.00833992 -0.0237154 0.0143254 0.0317542 -0.00720326 0.0272806 0.0180736 0.0102642 0.00179988 -0.0163097 -0.0508021 -0.017901 -0.0423283 0.0350548 0.0217692 0.0101154 0.037684 -0.0141399 -0.0258881
internal_weight=5712.82 4809.44 4079.35 3540.19 2662.66 877.524 730.089 2223.52 2100.92 439.137 807.064 466.749 674.283 401.908 1634.17 266.794 211.658 317.628 235.388 329.461 103.676 903.379 43.5946 463.295 1316.55 217.497 225.786 1099.05 122.601 88.3867
internal_count=22932 19294 16364 14194 10675 3519 2930 8916 8425 1759 3235 1870 2703 1610 6555 1068 848 1274 944 1319 415 3638 175 1862 5281 872 904 4409 491 354
is_linear=0
shrinkage=0.03


Tree=4
num_leaves=31
num_cat=0
split_feature=35 9 87 4 2 49 1 5 45 8 45 43 7 2 7 75 6 75 11 7 18 8 41 41 5 4 23 133 15 43
split_gain=2908.59 1374.88 824.188 845.694 409.245 248.757 212.045 210.372 186.675 169.035 167.348 125.814 68.2961 65.3102 84.0653 63.3019 63.0113 58.0907 56.6806 76.8152 53.7137 52.3613 49.7336 49.0141 48.9564 45.3932 50.7709 47.6086 45.3161 44.756
threshold=0.10195850000000002 2062.5000000000005 1.0000000180025095e-35 -0.0033159999999999995 2.2171142480000001 0.15450000000000003 10.821131050000002 2459169.5617950005 -0.80276499999999984 18.420927645000003 -0.034564999999999992 0.064420000000000019 3580.5746961500004 3.0127909410000004 5118.361022000001 0.098500000000000018 2.2195000000000005 0.039500000000000007 4455.5000000000009 6433.0000000000009 0.014700000000000001 14.296450000000002 1.3404000000000003 0.22253000000000003 2459141.0777430008 -0.011882999999999999 -0.070501499999999981 1.2316515000000001 -4.7499999999999991 8.5271550000000023
decision_type=2 2 2 2 2 2 2 2 2 2 2 2 2 2 2 2 2 2 2 2 2 2 2 2 2 2 2 2 2 2
left_child=1 2 3 6 8 9 -1 28 18 10 13 23 -9 14 16 29 -6 -11 -5 -20 25 22 -2 -12 -17 26 -8 -28 -3 -15
right_child=21 7 -4 4 5 -7 20 12 -10 17 11 -13 -14 15 -16 24 -18 -19 19 -21 -22 -23 -24 -25 -26 -27 27 -29 -30 -31
leaf_value=0.019036349952735884 -0.038581764167029742 -0.04304975228985132 0.053950976634888577 0.021126646644689172 0.018473614544209812 -0.010122672136870707 -0.034070311966960809 -0.021231574397715454 -0.038750458826233958 0.014764484333312931 -0.0450042314677431 0.021865497725474099 0.010287491156666564 0.034875812716850557 0.038057578055931518 -0.019468327856438528 -0.022433972030748463 -0.025137088156269052 -0.014459323370129078 0.02498231090193 0.038726663244916811 -0.051157034502207148 0.03121110606748213 0.039387190405719148 0.022533981810134596 -0.012649432073138775 0.056720342320131345 -0.037090318070574273 0.048268946392055118 0.013626826119136199
leaf_weight=114.45298853516579 30.291514813899994 440.63048285245895 455.43939916789532 115.98293872177601 75.997474849224091 186.92039985954762 409.98440124094486 144.96327844262123 124.80596254765987 60.170634105801582 55.396347388625145 76.345860570669174 107.94248270988464 1551.8889356404543 86.059599012136459 32.948527678847313 61.161528989672661 72.287381783127785 175.93307173252106 59.460172563791275 11.465413570404051 855.46402958035469 13.19041486084461 6.9736809432506552 103.20317997038364 150.21113115549088 10.99867205321789 8.7360294908285123 4.9456462264060965 94.651931077241898
leaf_count=459 122 1777 1845 465 305 748 1646 581 502 241 223 306 432 6238 346 132 245 290 705 238 46 3463 53 28 414 603 44 35 20 380
internal_value=-3.3743e-07 0.00927468 0.0159006 0.0111475 0.0182268 0.0231471 -0.0183407 -0.0296323 -0.00723332 0.0258781 0.0279094 -0.00395813 -0.00777895 0.0301132 0.0148154 0.0320287 0.000232227 -0.00701132 0.00396131 -0.00449639 -0.0255743 -0.0495247 -0.0174098 -0.0355683 0.0123695 -0.0268456 -0.0318079 0.0151928 -0.0420362 0.0336543
internal_weight=5698.9 4799.96 4101.48 3646.04 2940.19 2464.01 705.849 698.482 476.182 2277.09 2144.63 138.716 252.906 2005.91 223.219 1782.69 137.159 132.458 351.376 235.393 591.396 898.946 43.4819 62.37 136.152 579.93 429.719 19.7347 445.576 1646.54
internal_count=22932 19294 16484 14639 11806 9896 2833 2810 1910 9148 8617 557 1013 8060 896 7164 550 531 1408 943 2374 3638 175 251 546 2328 1725 79 1797 6618
is_linear=0
shrinkage=0.03


Tree=5
num_leaves=31
num_cat=0
split_feature=35 9 15 4 2 87 5 8 49 45 1 41 5 6 4 7 2 2 5 3 5 8 12 65 49 4 23 7 6 65
split_gain=2752.3 1297.28 789.044 608.25 435.595 343.48 199.624 194.787 204.009 150.583 137.812 106.959 95.3338 77.0622 74.2982 64.3251 64.1041 57.2015 111.75 53.6387 66.5618 49.9743 49.8116 56.5513 47.018 46.8056 51.5332 46.1501 44.8641 44.5297
threshold=0.10195850000000002 2062.5000000000005 -11.899999999999999 -0.0015994999999999998 2.2171142480000001 1.0000000180025095e-35 2459169.5617950005 18.420927645000003 0.094500000000000015 -0.57900999999999991 10.821131050000002 0.060780000000000008 2459108.6545100003 3.4511000000000007 -0.00021619999999999997 3580.5746961500004 4.3037277000000005 37.970925350000009 2459313.6037025005 1.5505000000000005e-05 2459879.1688950001 14.608448550000002 4.0202300000000006 12.062250000000002 0.070500000000000021 -0.011882999999999999 -0.070501499999999981 0.16435000000000002 9.3080500000000015 12.2872
decision_type=2 2 2 2 2 2 2 2 2 2 2 2 2 2 2 2 2 2 2 2 2 2 2 2 2 2 2 2 2 2
left_child=1 2 3 5 9 10 -3 8 14 19 27 -10 25 -13 17 -8 -15 18 -6 24 -21 -2 23 -16 -5 26 -12 -1 -24 -9
right_child=21 6 -4 4 7 -7 15 29 11 -11 12 13 -14 16 22 -17 -18 -19 -20 20 -22 -23 28 -25 -26 -27 -28 -29 -30 -31
leaf_value=0.045419742577333479 -0.018561527677782429 -0.040955837509710907 0.049453079131775976 0.01457555166524933 -0.0075832474161652745 0.052581998981470521 -0.02061670567702429 -0.024394865026011795 -0.027974843386459735 -0.039876303629992518 -0.032504015770389694 -0.00053053914369517187 0.038095299395980081 -0.026171187515384272 0.0071477504352297546 0.0099815398488943604 0.03094821499762665 0.038541294941256771 0.034508757696657448 -0.026372007480069362 0.045644922462889377 -0.05002672326841525 0.036301839785105629 0.037905671149199835 -0.022587527311284925 -0.013119193923972391 0.016282560182579415 0.0019403516850818915 -0.023509348810615244 0.015737967507297019
leaf_weight=27.778917491436005 48.008001253008842 443.63822476565838 534.35650914907455 190.77531284093857 140.45814721286297 69.586950182914734 144.81031641364098 91.417106181383133 65.653621047735214 111.50471499562263 413.01404547691345 190.81388615071774 22.651620730757713 19.463050439953804 127.98601810634136 107.91400408744812 193.37107571959496 81.823442935943604 95.269399076700211 91.840821802616119 13.212060928344725 845.49398839473724 1093.7205053418875 92.811832070350647 36.502014830708504 216.41658744215965 20.451177015900612 105.08368203043938 11.404632881283758 34.187816470861435
leaf_count=112 194 1797 2172 764 564 284 581 367 264 450 1662 765 91 78 514 432 777 330 384 368 53 3444 4409 374 147 869 82 421 46 137
internal_value=-5.48848e-07 0.00901964 0.0154619 0.0103558 0.0174411 -0.011364 -0.0288326 0.0228246 0.0249824 -0.009709 -0.016889 0.00753723 -0.0224047 0.0133133 0.0299639 -0.00755117 0.0257248 0.0169298 0.00942826 0.000412848 -0.0173147 -0.0483361 0.0330855 0.0200768 0.00860695 -0.0245134 -0.0302022 0.011031 0.0356846 -0.0134713
internal_weight=5681.42 4787.92 4091.55 3557.2 2682.22 874.983 696.363 2238.38 2112.78 443.835 805.396 469.302 672.533 403.648 1643.47 252.724 212.834 317.551 235.728 332.33 105.053 893.502 1325.92 220.798 227.277 649.882 433.465 132.863 1105.13 125.605
internal_count=22932 19294 16484 14312 10791 3521 2810 9009 8505 1782 3237 1884 2704 1620 6621 1013 855 1278 948 1332 421 3638 5343 888 911 2613 1744 533 4455 504
is_linear=0
shrinkage=0.03


Tree=6
num_leaves=31
num_cat=0
split_feature=35 9 87 4 2 49 5 1 45 8 45 43 8 75 13 6 7 81 45 41 75 49 61 11 7 8 65 18 6 81
split_gain=2606.68 1224.55 750.755 751.27 365.044 227.411 189.605 189.101 166.466 147.158 156.223 122.139 65.7721 77.451 67.2095 78.0617 60.5958 56.6477 57.9071 56.3214 53.6149 52.3697 55.0985 51.6007 70.5046 51.3199 60.8191 50.2331 48.5816 57.5834
threshold=0.10195850000000002 2062.5000000000005 1.0000000180025095e-35 -0.0033159999999999995 2.2171142480000001 0.16550000000000004 2459169.5617950005 10.821131050000002 -1.0199049999999998 18.420927645000003 -0.034564999999999992 0.17164000000000004 1.0403977000000002 0.12350000000000001 2.0405000000000002 3.0022000000000006 3580.5746961500004 3.4940000000000002 -0.34935499999999992 0.22253000000000003 0.039500000000000007 0.081500000000000017 7.4649938000000011 4455.5000000000009 6433.0000000000009 3.1454823500000004 12.449150000000001 0.014700000000000001 1.9151000000000002 0.61225000000000007
decision_type=2 2 2 2 2 2 2 2 2 2 2 2 2 2 2 2 2 2 2 2 2 2 2 2 2 2 2 2 2 2
left_child=1 2 3 7 8 9 -3 -1 23 10 12 19 17 14 21 -16 -8 18 -6 -12 -11 25 -23 -5 -25 -14 28 -9 29 -27
right_child=-2 6 -4 4 5 -7 16 27 -10 20 11 -13 13 -15 15 -17 -18 -19 -20 -21 -22 22 -24 24 -26 26 -28 -29 -30 -31
leaf_value=0.018007726042816977 -0.047220016733445717 -0.039924162495596383 0.051633202610321512 0.020717152284804585 0.026188251031516625 -0.013756843718557413 -0.020023392161539519 -0.025410672852898594 -0.035073346557863101 0.014368857438992419 -0.039888218066236929 0.024606434341833235 0.042990803248131364 0.00144824308056769 -0.023658048534459977 0.02914888449931204 0.0096851069981343241 -0.031533784807060532 -0.013890188560710346 0.041366547129894092 -0.023958391973232622 -0.017624877243570796 0.026010330410437228 -0.014046833528131776 0.024039260092740034 0.038544004563681955 0.041086413768449973 0.038070555170539103 0.028617610431253104 -0.013169273836729022
leaf_weight=114.17035165429115 887.27765235304832 441.4814178198576 449.08756393194199 114.48937973380089 159.11369206011295 151.35101392865181 144.63083623349667 577.59226010739803 134.88130341470242 60.345971018075943 66.555171698331833 69.693570747971535 518.02500477433205 80.884103626012802 41.661037594079971 63.740594074130058 107.88092923164368 23.173282280564308 40.756023824214935 8.6785838305950147 72.088313356041908 28.630808517336845 288.26050548255444 166.05977565050125 59.389851853251457 28.891825705766678 311.38745130598545 11.440893620252607 380.86068788170815 58.858648926019669
leaf_count=459 3638 1797 1845 460 641 606 581 2328 546 242 269 280 2097 325 167 257 432 93 164 35 290 115 1161 666 238 117 1261 46 1539 237
internal_value=-7.12575e-07 0.00877518 0.0150415 0.0105157 0.0172034 0.0218641 -0.028065 -0.0173286 -0.0068737 0.0242065 0.0260808 -0.0040079 0.028235 0.030138 0.0314869 0.00827642 -0.00733099 0.0128677 0.0180157 -0.0305151 -0.00649392 0.0330018 0.0220679 0.00431539 -0.00401387 0.0356711 0.0308098 -0.0241777 0.0239811 0.00385731
internal_weight=5661.34 4774.06 4080.07 3630.98 2927.78 2452.96 693.993 703.204 474.82 2301.61 2169.17 144.927 2024.24 1801.2 1720.32 105.402 252.512 223.043 199.87 75.2338 132.434 1614.91 316.891 339.939 225.45 1298.02 779.999 589.033 468.611 87.7505
internal_count=22932 19294 16484 14639 11806 9896 2810 2833 1910 9290 8758 584 8174 7276 6951 424 1013 898 805 304 532 6527 1276 1364 904 5251 3154 2374 1893 354
is_linear=0
shrinkage=0.03


Tree=7
num_leaves=31
num_cat=0
split_feature=35 9 15 4 2 87 5 5 8 45 49 1 41 4 7 37 7 3 5 6 2 8 23 41 15 41 63 65 8 81
split_gain=2470.65 1156.5 711.888 556.025 387.299 296.502 187.926 172.445 170.592 164.846 153.97 82.1195 79.9923 64.9484 60.6545 60.0555 56.4315 54.5421 79.7048 52.4443 51.791 48.8877 48.6996 47.1914 46.8969 46.8516 105.034 64.6625 97.7627 68.4624
threshold=0.10195850000000002 1919.1650000000002 -11.899999999999999 -0.00095964999999999993 2.5402699550000007 1.0000000180025095e-35 2459169.5617950005 2459329.4121145005 18.420927645000003 -1.0199049999999998 0.10150000000000002 10.821131050000002 0.070050000000000015 -0.011882999999999999 3580.5746961500004 0.012659500000000002 0.16435000000000002 1.5505000000000005e-05 2459844.6969730007 3.4511000000000007 4.3037277000000005 14.296450000000002 -0.070501499999999981 1.3404000000000003 -4.7499999999999991 0.40391000000000005 15.520500000000002 12.172250000000002 3.6612456000000004 2.2847500000000003
decision_type=2 2 2 2 2 2 2 2 2 2 2 2 2 2 2 2 2 2 2 2 2 2 2 2 2 2 2 2 2 2
left_child=1 2 3 5 9 7 24 11 10 17 15 16 -12 22 -8 25 -1 -5 -19 -14 -21 23 -13 -2 -3 26 27 28 29 -6
right_child=21 6 -4 4 8 -7 14 -9 -10 -11 12 13 19 -15 -16 -17 -18 18 -20 20 -22 -23 -24 -25 -26 -27 -28 -29 -30 -31
leaf_value=0.041353435476811723 -0.035871036244141535 -0.039225642314751889 0.047323511838584818 0.0129863297395067 0.039972627534701433 0.050384727862150598 -0.019149055902674034 0.036201696340018068 -0.012855935299370022 -0.032775413758714567 -0.025258542927159167 -0.030970015002697224 0.0010331869145949713 -0.010240261449625721 0.0097041698106871861 -0.03565206688132478 -0.0060813659014285438 -0.022211993972083104 0.041466804408361195 -0.02985495705418776 0.030477224436312719 -0.047772330842250833 0.016468476954107768 0.032184221707046566 0.049324988271608576 0.038811392923652127 -0.017140359336643853 0.038366053472869019 0.013046144122031346 -0.01865938109620623
leaf_weight=29.088987976312637 29.950432598590851 449.59876538813114 526.44926750659943 246.19553562998772 273.88551364839077 69.372670352458954 148.67220574617386 57.700673267245293 111.39093878865242 146.65372271835804 55.263835430145264 410.87822911143303 151.01289689540863 283.71479469537735 117.31226739287376 12.614474296569822 100.75175826251507 103.67468120157719 21.329998686909676 13.974896147847174 153.04327084124088 837.22409947216511 20.445421785116196 13.21709458529949 5.4479599446058264 405.54047331213951 46.686166346073151 400.51529729366302 377.79378283023834 19.178683787584305
leaf_count=118 122 1840 2170 989 1112 288 598 233 448 595 223 1662 606 1142 470 51 404 416 86 56 617 3463 82 53 22 1646 189 1628 1526 77
internal_value=-7.66067e-07 0.00854124 0.0147917 0.00991338 0.0173006 -0.00938226 -0.026456 -0.013976 0.0232322 -0.00584681 0.0253373 -0.0174028 0.00805598 -0.0213884 -0.00642336 0.0295367 0.00454573 0.00479214 -0.0113463 0.013845 0.0254291 -0.0461671 -0.0287214 -0.0150338 -0.0381655 0.0300764 0.026908 0.0288275 0.0231328 0.0361356
internal_weight=5638.58 4758.19 4037.16 3510.71 2538.75 971.953 721.031 902.58 2020.9 517.854 1909.51 844.879 373.295 715.038 265.984 1536.21 129.841 371.2 125.005 318.031 167.018 880.392 431.324 43.1675 455.047 1523.6 1118.06 1071.37 670.858 293.064
internal_count=22932 19294 16364 14194 10265 3929 2930 3641 8179 2086 7731 3408 1502 2886 1068 6229 522 1491 502 1279 673 3638 1744 175 1862 6178 4532 4343 2715 1189
is_linear=0
shrinkage=0.03


Tree=8
num_leaves=31
num_cat=0
split_feature=35 9 87 4 2 49 5 1 49 8 45 43 75 8 7 5 3 75 17 18 8 12 11 39 45 13 3 5 15 6
split_gain=2344.27 1093.61 686.902 668.346 328.022 208.512 171.882 169.626 165.889 133.783 140.347 108.206 59.3535 56.5794 53.7967 53.2875 65.429 51.2428 47.1506 47.0521 46.9909 45.9391 44.1196 43.4237 41.7232 64.59 41.4133 52.7477 40.9329 40.5803
threshold=0.10195850000000002 2062.5000000000005 1.0000000180025095e-35 -0.0033159999999999995 2.2457862885000006 0.15150000000000002 2459169.5617950005 10.821131050000002 0.065500000000000017 18.420927645000003 -0.034564999999999992 0.064420000000000019 0.055500000000000008 1.2827400000000002 3580.5746961500004 2459141.0777430008 0.00011130000000000001 0.039500000000000007 -0.010136194999999999 0.014700000000000001 14.608448550000002 4.2381800000000007 6029.2500000000009 -0.00025549999999999992 -0.32275999999999994 1.0000350000000002 1.8510000000000001e-05 2459879.1688950001 -4.7499999999999991 2.3923187500000007
decision_type=2 2 2 2 2 2 2 2 2 2 2 2 2 2 2 2 2 2 2 2 2 2 2 2 2 2 2 2 2 2
left_child=1 2 3 7 8 9 28 -1 18 10 12 23 13 24 -8 16 21 -11 26 -9 -2 -14 -17 -12 -6 -26 -5 -28 -3 -16
right_child=20 6 -4 4 5 -7 14 19 -10 17 11 -13 15 -15 29 22 -18 -19 -20 -21 -22 -23 -24 -25 25 -27 27 -29 -30 -31
leaf_value=0.017130610524501086 -0.016198982369268779 -0.039023499300119162 0.04960330415297768 0.0097069764096280754 0.023367461462831838 -0.0083193323720011422 -0.018905353975893054 -0.024087395946928398 -0.03426055288619325 0.014679098232089058 -0.043467691551270914 0.019835037445037489 -0.020017391525811126 0.032498372659054753 -0.016386990639097411 0.031710725191723028 -0.023376550400182935 -0.022999977381302116 0.051696729641958795 0.037440545924461943 -0.046863711287671125 0.041221450867437122 0.0077998164993567749 0.035334705399523013 -0.028797979496615903 0.042150272596917074 -0.020513389884948326 0.043085452296405709 0.047854592854075249 0.022397698428375228
leaf_weight=113.82631602883339 47.569149911403656 431.34941300749779 440.90904402732849 218.50358666479588 185.72172923386097 203.31180900335312 144.20636400580406 574.75389675796032 136.8315693885088 59.267160564661026 53.284980073571205 74.697836577892303 15.644058302044867 1299.3093259036541 36.931953251361847 205.56048718094826 55.960163414478302 71.884124845266342 18.235496252775192 11.408073306083677 824.95963114500046 37.337738364934921 104.89008344709873 7.13634169101715 36.979420781135559 16.792735382914543 97.14526042342186 13.349606201052664 4.9366945028305045 70.869423806667328
leaf_count=459 194 1777 1845 877 753 815 581 2328 558 238 217 301 63 5293 148 835 225 290 75 46 3444 152 424 29 149 68 390 54 20 284
internal_value=-8.98319e-07 0.00831595 0.0142538 0.00993854 0.0162659 0.020762 -0.0266466 -0.0163821 -0.00628387 0.0234199 0.0252615 -0.00431012 0.027302 0.0300286 -0.00692107 0.0172974 -0.000754467 -0.00597283 0.00474067 -0.0228899 -0.0451919 0.0231393 0.0236321 -0.0341604 0.0166298 -0.00664125 0.00213802 -0.0128296 -0.0380405 0.00911035
internal_weight=5613.56 4741.03 4052.74 3611.83 2911.84 2427.78 688.294 699.988 484.066 2224.47 2093.31 135.119 1958.2 1538.8 252.008 419.393 108.942 131.151 347.234 586.162 872.529 52.9818 310.451 60.4213 239.494 53.7722 328.998 110.495 436.286 107.801
internal_count=22932 19294 16484 14639 11806 9852 2810 2833 1954 9037 8509 547 7962 6263 1013 1699 440 528 1396 2374 3638 215 1259 246 970 217 1321 444 1797 432
is_linear=0
shrinkage=0.03


Tree=9
num_leaves=31
num_cat=0
split_feature=35 9 15 4 2 87 5 8 49 5 45 41 1 12 65 2 7 6 4 7 37 8 8 6 69 3 5 23 6 79
split_gain=2226.78 1044.04 664.904 482.422 361.671 267.361 166.121 159.293 163.881 158.888 123.774 89.0154 75.5051 60.0238 69.8169 59.7841 59.1675 58.2251 58.0533 51.9188 51.8406 51.7414 71.1042 47.8752 47.7217 46.8893 55.8979 46.0894 45.3371 44.5055
threshold=0.13004900000000003 2062.5000000000005 -11.899999999999999 -0.00095964999999999993 2.2171142480000001 1.0000000180025095e-35 2459169.5617950005 18.420927645000003 0.094500000000000015 2459355.2404325004 -0.57900999999999991 0.038850000000000003 10.821131050000002 4.0202300000000006 12.062250000000002 4.4241887000000011 229.90000000000003 3.7065000000000006 -0.011882999999999999 0.16435000000000002 0.012659500000000002 11.927650000000002 21.311500000000006 4.0441350000000007 0.17200000000000001 1.5505000000000005e-05 2459879.1688950001 -0.070501499999999981 13.07145 683.66700000000003
decision_type=2 2 2 2 2 2 2 2 2 2 2 2 2 2 2 2 2 2 2 2 2 2 2 2 2 2 2 2 2 2
left_child=1 2 3 5 10 9 -3 8 13 12 25 -10 19 14 16 -13 -6 -17 27 -1 24 -8 -23 -18 28 -5 -27 -14 -15 -9
right_child=-2 6 -4 4 7 -7 21 29 11 -11 -12 15 18 20 -16 17 23 -19 -20 -21 -22 22 -24 -25 -26 26 -28 -29 -30 -31
leaf_value=0.039889267623638973 -0.045281290810164243 -0.037282799609858634 0.04547399563007451 0.0080217470611840657 0.048009836387487945 0.048445287249849783 -0.019831362518011115 -0.022080895274941201 -0.031791646595737778 0.035826599253028293 -0.036233772406401576 -0.013653912940277685 -0.029550971084899038 0.032208761397867595 0.033901511115111749 0.0038207610260475562 -0.017152721716135303 0.029159821558116486 -0.0098754099726693148 -0.005628741710465182 -0.031581980684978944 0.019653321554494542 -0.035657767960920891 0.021231381794936093 -0.0053193204722222212 -0.024631479180055968 0.041789063646779714 0.016613852983078353 -0.028258787269904689 0.021216652666233408
leaf_weight=28.862395569682121 831.90591597557068 439.70726595818996 517.8729500323534 226.5871884226799 21.699786782264709 67.898599684238434 130.48757499456406 94.478955641388893 47.720022305846214 55.622779831290245 111.10199119150639 69.671203181147575 408.24242722988129 1252.8337448686361 100.85355009138584 157.46161936223507 94.750961735844612 169.43877430260181 284.76056940853596 103.16505621373653 12.120207875967024 94.34662052989006 26.876458257436752 42.30120487511158 32.190130800008774 90.990947544574738 13.037264600396155 20.437916815280914 11.259969606995581 27.610394090414047
leaf_count=118 3505 1824 2172 911 89 288 526 382 194 226 456 280 1662 5127 412 634 381 687 1149 414 49 379 108 171 130 366 53 82 46 111
internal_value=-1.10829e-06 0.00792186 0.0137212 0.00908275 0.0158701 -0.00896169 -0.026157 0.0209837 0.0230024 -0.0132874 -0.00883924 0.00691898 -0.0165186 0.0275596 0.0143825 0.0115771 0.00198221 0.0169545 -0.0203752 0.00432191 0.0301742 -0.00672151 0.00739026 -0.00530545 0.0307516 0.000366585 -0.0163074 -0.02735 0.0316701 -0.0122892
internal_weight=5586.29 4754.39 4062.97 3545.1 2576.11 968.99 691.418 2134.39 2012.3 901.091 441.717 444.292 845.468 1568.01 259.606 396.572 158.752 326.9 713.441 132.027 1308.4 251.711 121.223 137.052 1296.28 330.615 104.028 428.68 1264.09 122.089
internal_count=22932 19427 16590 14418 10479 3939 2837 8693 8200 3651 1786 1795 3425 6405 1053 1601 641 1321 2893 532 5352 1013 487 552 5303 1330 419 1744 5173 493
is_linear=0
shrinkage=0.03


Tree=10
num_leaves=31
num_cat=0
split_feature=35 9 87 4 2 49 5 1 49 45 8 43 65 79 5 49 6 12 81 6 7 16 17 3 41 5 75 1 23 133
split_gain=2116.17 986.979 637.084 589.555 289.044 208.436 158.558 152.589 140.341 133.21 134.314 120.001 59.4109 114.395 97.8388 84.8945 77.5311 71.8953 49.456 50.7182 47.3399 44.2769 43.9512 42.4969 41.5091 41.3394 40.5715 40.0917 40.2836 45.6868
threshold=0.13004900000000003 2062.5000000000005 1.0000000180025095e-35 -0.0033159999999999995 2.2171142480000001 0.16750000000000004 2459169.5617950005 10.821131050000002 0.065500000000000017 -0.033079999999999991 18.105150000000005 0.17164000000000004 12.464450000000001 143.16100000000003 2459035.1775295003 0.07350000000000001 1.6863000000000004 4.3601150000000013 7.1882500000000009 3.0205000000000006 2237.5000000000005 0.0012901550000000001 -0.010136194999999999 0.00020635000000000003 0.22253000000000003 2459035.1775295003 0.039500000000000007 48.193386000000011 -0.070501499999999981 1.2316515000000001
decision_type=2 2 2 2 2 2 2 2 2 2 2 2 2 2 2 2 2 2 2 2 2 2 2 2 2 2 2 2 2 2
left_child=1 2 3 7 8 9 -3 -1 22 10 12 24 13 15 23 20 -16 -17 -8 -20 -6 27 -5 -15 -11 -14 -12 28 -9 -30
right_child=-2 6 -4 4 5 -7 18 21 -10 11 26 -13 25 14 16 17 -18 -19 19 -21 -22 -23 -24 -25 -26 -27 -28 -29 29 -31
leaf_value=0.016303243872960983 -0.044398184348107612 -0.036431917020297196 0.04782996570944166 0.0014254619479016459 0.038312821239581893 -0.014719235931131577 -0.021693850177849486 -0.027515502494752698 -0.032340689289916534 -0.038515957902798825 0.013398665333476483 0.023978174749558358 0.0062675715807085763 0.0060659831862932712 -0.016662578501068379 0.035390159464768013 0.0223551858360907 0.010109934245634748 -0.0087181987687888884 0.028312335785444641 0.013049216714858973 0.035651063620600359 0.049982260993380906 -0.034116934733148759 0.02246168233375586 0.039586515509581338 -0.019243796737738877 -0.00094180417427104548 0.055051132155158194 -0.036040574830433027
leaf_weight=113.42116437852383 823.13190335035324 436.52565670013428 431.28252243995667 321.16476272046566 577.23602248728275 151.80704785883427 109.3472862392664 485.35376024246216 133.63695204257965 71.162863984704018 60.829628720879555 67.491822004318237 37.2237558811903 43.140858396887779 52.236538738012314 151.73017862439156 373.9885386377573 304.30143681168556 88.929070860147476 53.202638745307922 75.483549281954765 11.858748629689215 17.701638787984848 52.53016659617424 11.698909521102903 336.26278166472912 78.481876745820045 66.090136528015137 11.47799898684025 8.7200307101011258
leaf_count=459 3505 1824 1845 1292 2382 610 441 1979 550 291 245 273 152 175 211 620 1527 1234 358 214 307 48 74 211 48 1389 318 269 46 35
internal_value=-1.27379e-06 0.00771779 0.013366 0.00925439 0.015175 0.0193252 -0.0255008 -0.0155362 -0.00630543 0.0215783 0.023493 -0.00571851 0.025473 0.023001 0.0114193 0.0284525 0.0175733 0.0185211 -0.00652609 0.00514304 0.0353912 -0.0217251 0.00396196 -0.0159973 -0.0299068 0.0362658 -0.00499064 -0.0229154 -0.025788 0.0157244
internal_weight=5557.45 4734.32 4046.31 3615.03 2918.11 2445.61 688.005 696.922 472.503 2293.8 2143.45 150.354 2004.13 1630.65 521.896 1108.75 426.225 456.032 251.479 142.132 652.72 583.501 338.866 95.671 82.8618 373.487 139.312 571.642 505.552 20.198
internal_count=22932 19427 16590 14745 11909 9993 2837 2836 1916 9383 8771 612 8208 6667 2124 4543 1738 1854 1013 572 2689 2377 1366 386 339 1541 563 2329 2060 81
is_linear=0
shrinkage=0.03


Tree=11
num_leaves=31
num_cat=0
split_feature=35 9 87 4 2 49 49 5 1 45 8 43 65 79 6 49 5 7 3 7 13 0 5 75 17 3 5 2 79 15
split_gain=2012.47 933.348 610.63 556.74 274.979 194.819 167.661 151.503 144.065 131.118 136.482 108.399 48.734 106.364 93.4006 69.9089 69.4674 47.8239 47.7016 47.0801 44.5359 42.7395 40.9452 40.8368 40.8255 46.5457 60.8373 48.8956 40.7627 39.3671
threshold=0.13004900000000003 2062.5000000000005 1.0000000180025095e-35 -0.0033159999999999995 2.5402699550000007 0.16550000000000004 0.06950000000000002 2459169.5617950005 10.821131050000002 -0.033079999999999991 18.420927645000003 0.064420000000000019 12.464450000000001 143.16100000000003 1.9151000000000002 0.081500000000000017 2459035.1775295003 3580.5746961500004 9.7150000000000017e-05 2237.5000000000005 1.1930650000000003 129.37611980000003 2459035.1775295003 0.039500000000000007 -0.0089499999999999979 1.5505000000000005e-05 2459844.6969730007 1.3325633700000001 711.18500000000006 -4.7499999999999991
decision_type=2 2 2 2 2 2 2 2 2 2 2 2 2 2 2 2 2 2 2 2 2 2 2 2 2 2 2 2 2 2
left_child=1 2 3 8 6 9 24 29 -1 10 12 -11 13 15 -15 19 18 -9 -16 -6 -17 -10 -14 -12 25 27 -27 -5 -25 -3
right_child=-2 7 -4 4 5 -7 -8 17 21 11 23 -13 22 14 16 20 -18 -19 -20 -21 -22 -23 -24 28 -26 26 -28 -29 -30 -31
leaf_value=0.015837627822901403 -0.04356444933507661 -0.036590052812274447 0.046997484224456383 -0.0040183783437731657 0.037279583186846141 -0.013209505616554479 -0.031879739547013002 -0.017670427845968745 0.0099056003318257393 -0.032788738157331673 0.012244009137803354 0.018820222386422187 0.0042490351271233474 -0.017661855187746312 0.025435150725569823 0.012086963614332131 0.023255710843624516 0.0087766167192830039 -0.025705542052887758 0.012098669977524068 0.035361504798194811 -0.023276184923890893 0.039144195658816855 -0.031894791615574618 0.047742928627331788 -0.01746464239305406 0.036712461319178338 0.022394736878086789 0.031872553343854672 0.04849819329231627
leaf_weight=113.25551357865334 813.8584967404604 428.21084016561508 425.83644378185272 109.07934388518333 605.80765606462955 154.46379406750202 143.76541808247566 143.58153523504734 37.332605466246605 69.83116814494133 56.848667368292809 77.035733312368393 33.486583188176155 80.256303489208221 24.562346056103706 273.86664792895317 348.17159795761108 107.6910375058651 49.487843006849289 75.109839767217636 101.38494794070721 544.19776862859726 314.39455276727676 58.557282894849777 19.688849061727524 129.81930121779442 21.784742116928101 149.56763142347336 10.665366739034651 4.9502623081207267
leaf_count=459 3505 1804 1845 439 2517 621 593 581 152 288 229 312 137 324 100 1111 1427 432 199 306 416 2225 1309 238 83 524 89 604 43 20
internal_value=-1.35451e-06 0.00752178 0.013025 0.00900914 0.0147742 0.0193483 -0.0038338 -0.0248675 -0.0151174 0.0216557 0.0236337 -0.00571842 0.0256327 0.0233667 0.0120048 0.0287722 0.0176438 -0.00633569 -0.00874224 0.034502 0.0183752 -0.021146 0.0357852 -0.00659693 0.00554434 0.00351914 -0.00967966 0.0112555 -0.0220699 -0.0356176
internal_weight=5526.55 4712.69 4028.26 3602.42 2907.64 2333.93 573.705 684.434 694.786 2179.47 2032.6 146.867 1906.53 1558.65 502.478 1056.17 422.222 251.273 74.0502 680.917 375.252 581.53 347.881 126.071 429.94 410.251 151.604 258.647 69.2226 433.161
internal_count=22932 19427 16590 14745 11909 9577 2332 2837 2836 8956 8356 600 7846 6400 2050 4350 1726 1013 299 2823 1527 2377 1446 510 1739 1656 613 1043 281 1824
is_linear=0
shrinkage=0.03


Tree=12
num_leaves=31
num_cat=0
split_feature=35 9 15 4 2 87 8 65 5 49 49 41 1 4 13 3 5 6 4 7 2 8 65 6 2 6 13 2 23 37
split_gain=1915.1 883.049 587.359 414.004 313.402 229.889 166.082 146.154 141.258 137.123 126.54 80.3313 58.5804 56.6208 55.8384 53.9127 68.0575 52.2002 51.1257 50.7463 47.2232 46.1395 91.6103 46.7051 60.6055 44.5114 49.1439 42.5053 41.6643 41.3064
threshold=0.13004900000000003 2062.5000000000005 -25.899999999999995 -0.00095964999999999993 2.5402699550000007 1.0000000180025095e-35 19.958829250000004 11.285250000000001 2459355.2404325004 0.06950000000000002 0.094500000000000015 0.070050000000000015 10.821131050000002 -0.00021619999999999997 1.1305000000000003 1.5505000000000005e-05 2459844.6969730007 3.9309034500000002 -0.011882999999999999 0.16435000000000002 1.1021454500000003 3.1454823500000004 11.929700000000002 6.0605000000000002 10.221312010000002 3.3965000000000001 1.1000650000000003 1.2370173250000003 -0.070501499999999981 0.014922000000000001
decision_type=2 2 2 2 2 2 2 2 2 2 2 2 2 2 2 2 2 2 2 2 2 2 2 2 2 2 2 2 2 2
left_child=1 2 3 5 9 8 10 -3 12 15 13 -12 19 -6 -9 20 -17 -13 28 -1 -5 23 25 29 -25 26 -23 -16 -14 -15
right_child=-2 7 -4 4 6 -7 -8 14 -10 -11 11 17 18 21 27 16 -18 -19 -20 -21 -22 22 -24 24 -26 -27 -28 -29 -30 -31
leaf_value=0.039536054922787972 -0.042775719199485286 -0.031785604605030736 0.042443681994136333 -0.0080875050136537067 0.012848437018399774 0.045976087817308608 -0.02217483995711041 -0.030656003994175722 0.034052009793513228 -0.031084773082408309 -0.023726750555776003 0.0030551531792211667 -0.027695668058639326 0.037957675548677641 -0.015117928809658938 -0.022579277585475871 0.035796718062065865 0.025962074921400194 -0.0091157094595014695 -0.0066917772907776896 0.019908338329504335 0.022540366427754161 0.034180711395161427 -0.047807638432058194 0.037717498181775118 0.024213935482328312 -0.0090532215069354331 0.023849487255506539 0.016266047477987503 -0.04927381460921882
leaf_weight=27.036331936717033 804.14591474831104 526.45521369576454 519.9089292883873 78.257341638207436 249.8833404481411 64.843100264668465 80.644202798604965 37.04231370985508 54.973064124584198 143.02997650206089 63.524820193648338 210.0520400851965 403.40137556195259 512.76776002347469 36.729530692100525 105.30888687074184 21.673450529575348 156.04554817080498 283.09420667588711 102.00441697239876 176.58934400975704 70.50044010579586 352.33966079354286 13.725597754120828 16.327907115221024 158.65625505149364 119.28427748382092 80.209651976823807 20.382831662893295 4.9325383007526389
leaf_count=112 3505 2211 2246 315 1029 286 328 152 226 593 260 848 1661 2140 149 425 89 637 1148 410 714 290 1470 56 68 652 485 325 82 20
internal_value=-1.40158e-06 0.00733326 0.0126963 0.00826387 0.0146108 -0.00856098 0.0200043 -0.0242662 -0.0125304 -0.0060308 0.0217685 0.00741528 -0.0155939 0.0258838 0.00144248 0.00335421 -0.0126156 0.012819 -0.018987 0.00299378 0.0113115 0.0284928 0.0233941 0.0350159 -0.00134229 0.0124867 0.00268303 0.0116102 -0.0255812 0.0371266
internal_weight=5493.77 4689.62 4009.19 3489.28 2533.54 955.735 2008.68 680.437 890.892 524.859 1928.04 429.622 835.919 1498.42 153.981 381.829 126.982 366.098 706.878 129.041 254.847 1248.53 700.781 547.754 30.0535 348.441 189.785 116.939 423.784 517.7
internal_count=22932 19427 16590 14344 10419 3925 8283 2837 3639 2136 7955 1745 3413 6210 626 1543 514 1485 2891 522 1029 5181 2897 2284 124 1427 775 474 1743 2160
is_linear=0
shrinkage=0.03


Tree=13
num_leaves=31
num_cat=0
split_feature=35 9 4 65 87 5 45 43 1 2 8 2 4 6 61 5 15 8 5 61 8 11 6 13 18 1 41 23 133 71
split_gain=1823.88 834.482 530.078 374.405 297.748 281.303 132.319 133.55 129.418 121.792 104.653 104.988 108.948 96.9794 96.3646 108.518 62.9209 52.7061 51.3229 44.4821 43.4523 43.158 67.8873 42.7466 40.3338 38.786 37.2532 37.0308 43.5145 36.7148
threshold=0.10195850000000002 896.63450000000012 -0.0033159999999999995 11.046300000000002 1.0000000180025095e-35 2454964.5155000002 -0.030529999999999998 0.070625000000000007 10.821131050000002 1.2370173250000003 18.420927645000003 3.0532564015000001 -0.00023214999999999998 2.8585520000000004 11.326340500000002 2459355.2404325004 -4.7499999999999991 9.0025900000000014 2459273.3557870002 7.4649938000000011 14.608448550000002 6291.5000000000009 3.5728077000000007 1.0803500000000004 0.014700000000000001 48.193386000000011 1.3404000000000003 -0.070501499999999981 1.2316515000000001 -0.064499999999999988
decision_type=2 2 2 2 2 2 2 2 2 2 2 2 2 2 2 2 2 2 2 2 2 2 2 2 2 2 2 2 2 2
left_child=1 2 4 16 8 -4 10 -8 -1 -5 11 13 14 -7 15 19 18 -11 -3 -13 26 -14 29 -9 25 27 -2 -10 -29 -23
right_child=20 3 5 9 -6 6 7 23 24 17 -12 12 21 -15 -16 -17 -18 -19 -20 -21 -22 22 -24 -25 -26 -27 -28 28 -30 -31
leaf_value=0.015576852877165977 -0.032511190302944047 -0.031223565318354459 0.040537161318050352 -0.019776029714441298 0.045302607322265306 0.010722420253507815 -0.037201503577820746 -0.00053368030065079769 -0.025460134273877635 -0.0064654956283186609 -0.017184865258680512 -0.016634784241218982 0.029460955071882757 -0.036184389003441834 0.036841248374538463 0.031220422937318925 0.047015045663655317 0.028055716528720021 -0.012164029351650328 0.010636452717606468 -0.042756008116842957 -0.021511863928300456 0.040888501548583762 0.0434534707232467 0.036288709153047716 0.00088979330431646466 0.023815284329407643 0.053632969227013098 -0.034985095095137288 0.01711723045643963
leaf_weight=111.28467670083046 30.405016243457794 622.51404465734959 523.702288210392 85.981301665306091 85.670141890645027 311.78982271254063 81.14689140021801 50.149349495768547 475.86088961362839 49.205097287893295 72.697220683097839 168.06031362712383 1050.0954559743404 45.451729863882065 92.265763938426971 86.019134819507599 10.381326168775557 208.34529915452003 159.79254606366158 79.195111766457558 779.30849722027779 48.384652942419052 46.45778700709343 32.946079283952713 11.318836331367491 64.948747187852859 16.197329729795456 11.690046563744547 8.6970350146293622 40.830719619989395
leaf_count=453 128 2624 2280 350 383 1270 335 204 1962 201 295 679 4377 186 381 359 44 854 649 323 3444 196 192 134 46 266 66 47 35 169
internal_value=-1.45639e-06 0.00731732 0.0145715 -0.01502 -0.00742029 0.0207719 0.0160786 -0.00982651 -0.0140257 0.0111395 0.018163 0.0194683 0.0227305 0.00475448 0.00970871 0.00219717 -0.0263568 0.0214604 -0.0273305 -0.0078999 -0.0410733 0.0274037 0.0114809 0.0169066 -0.0197798 -0.0209106 -0.0129341 -0.0237639 0.0158289 -0.00383269
internal_weight=5460.79 4634.88 3498.66 1136.22 769.47 2729.19 2205.49 164.242 683.8 343.532 2041.25 1968.55 1611.31 357.242 425.54 333.275 792.688 257.55 782.307 247.255 825.911 1185.77 135.673 83.0954 572.516 561.197 46.6023 496.248 20.3871 89.2154
internal_count=22932 19294 14572 4722 3192 11380 9100 673 2809 1405 8427 8132 6676 1456 1742 1361 3317 1055 3273 1002 3638 4934 557 338 2356 2310 194 2044 82 365
is_linear=0
shrinkage=0.03


Tree=14
num_leaves=31
num_cat=0
split_feature=35 9 87 4 2 49 49 5 1 6 8 37 8 6 75 11 6 81 8 8 49 0 77 75 17 3 5 2 7 6
split_gain=1737.83 797.56 545.974 469.444 235.783 172.214 143.032 136.464 122.21 115.749 109.794 93.2083 60.2168 68.8718 53.6556 51.1235 121.255 50.9257 42.7722 64.5893 40.8867 38.9069 37.4371 36.7359 36.3082 42.3326 54.7693 43.0934 35.8811 37.0062
threshold=0.13004900000000003 2062.5000000000005 1.0000000180025095e-35 -0.0033159999999999995 2.5402699550000007 0.17750000000000002 0.06950000000000002 2459169.5617950005 10.821131050000002 14.553500000000001 18.420927645000003 0.0098850000000000014 1.135 6.0605000000000002 0.12350000000000001 5750.3000000000011 2.7480411500000006 3.4940000000000002 11.927650000000002 21.734232450000004 0.07350000000000001 129.37611980000003 -0.085499999999999979 0.045500000000000006 -0.0089499999999999979 1.5505000000000005e-05 2459844.6969730007 1.3325633700000001 0.16435000000000002 1.0000000180025095e-35
decision_type=2 2 2 2 2 2 2 2 2 2 2 2 2 2 2 2 2 2 2 2 2 2 2 2 2 2 2 2 2 2
left_child=1 2 3 8 6 9 24 -3 28 10 11 12 13 17 15 20 -17 -6 -9 -20 -14 -10 -23 -12 25 27 -27 -5 -1 -30
right_child=-2 7 -4 4 5 -7 -8 18 21 -11 23 -13 14 -15 -16 16 -18 -19 19 -21 -22 22 -24 -25 -26 26 -28 -29 29 -31
leaf_value=0.040382432509623388 -0.041328584562238348 -0.033608680514100757 0.044916045422512291 -0.0038296820108000475 0.020200298013680333 -0.016437693672659015 -0.029775886770897656 -0.017641973858109849 0.010167271478461413 -0.030216588760449276 0.0083885201883541465 -0.022178827508203196 0.034327676665126171 -0.033398877916841901 0.00039499105705381911 0.0020650123675213156 0.028443078600340052 -0.029792312257097449 0.018256331665795194 -0.036280422384948698 0.016862772146115871 -0.023064942570646466 0.020633963387727806 -0.023897140869906394 0.045472572670649275 -0.016869026282857049 0.034801696893177581 0.020998721412015448 -0.063787854281622217 0.0098003342387862
leaf_weight=34.019103214144707 783.54914447665215 423.03936004638672 409.06793174147606 108.93113587796688 192.85279569029808 124.19943390786648 141.55733276903629 129.39456889033318 37.134457647800446 40.731907427310944 70.794423669576645 41.070592805743217 740.69706432521343 29.586679041385651 73.641113683581352 219.580909922719 548.91133838891983 20.265784397721291 96.250068828463554 24.5244260430336 144.11237688362598 519.94176559150219 18.264074876904488 57.465083539485931 19.071989238262177 129.36991308629513 21.535937771201134 148.93598841130733 6.7261980772018424 71.840567260980606
leaf_count=143 3505 1824 1845 439 800 501 593 526 152 169 287 168 3130 121 300 905 2284 82 388 99 595 2151 74 235 83 524 89 604 27 289
internal_value=-1.66084e-06 0.00697187 0.0120915 0.0083211 0.0136507 0.017923 -0.00363593 -0.0232219 -0.0139393 0.0198808 0.0208348 0.0225515 0.0234842 0.009492 0.0254506 0.0265667 0.0209061 0.0154464 -0.00565761 0.00718212 0.0314831 -0.0195328 -0.021582 -0.00607667 0.00501277 0.00312505 -0.00949504 0.0105104 0.0146447 0.00350036
internal_weight=5427.06 4643.51 3970.31 3561.24 2873.31 2303.91 569.402 673.208 687.926 2179.71 2138.98 2010.72 1969.65 242.705 1726.94 1653.3 768.492 213.119 250.169 120.774 884.809 575.34 538.206 128.26 427.845 408.773 150.906 257.867 112.586 78.5668
internal_count=22932 19427 16590 14745 11909 9577 2332 2837 2836 9076 8907 8385 8217 1003 7214 6914 3189 882 1013 487 3725 2377 2225 522 1739 1656 613 1043 459 316
is_linear=0
shrinkage=0.03


Tree=15
num_leaves=31
num_cat=0
split_feature=35 9 87 4 2 49 5 1 45 8 41 6 49 13 6 8 75 81 26 41 11 7 37 81 6 69 18 0 69 15
split_gain=1656.47 754.933 525.36 443.557 223.648 164.232 130.666 115.43 114.149 105.912 71.245 64.5172 59.3501 56.1938 58.4801 56.4436 71.1405 50.7264 55.3387 49.0166 43.3415 61.2679 42.7614 41.4044 43.7533 38.1421 37.7365 37.105 37.0053 36.0904
threshold=0.13004900000000003 2062.5000000000005 1.0000000180025095e-35 -0.0033159999999999995 2.2171142480000001 0.10350000000000001 2459169.5617950005 10.821131050000002 -0.57900999999999991 18.420927645000003 0.038850000000000003 13.07145 0.16750000000000004 2.0405000000000002 4.6550250000000011 1.135 0.12350000000000001 3.4940000000000002 14.187500000000002 0.86475000000000013 4455.5000000000009 6433.0000000000009 0.035294500000000006 7.1882500000000009 3.0205000000000006 0.035500000000000011 0.0034000000000000007 288.91041500000006 0.040500000000000008 -4.7499999999999991
decision_type=2 2 2 2 2 2 2 2 2 2 2 2 2 2 2 2 2 2 2 2 2 2 2 2 2 2 2 2 2 2
left_child=1 2 3 7 8 9 29 -1 20 11 -7 13 27 15 25 17 22 18 -6 -20 -5 -22 -17 -8 -25 -15 -9 -12 -11 -3
right_child=-2 6 -4 4 5 10 23 26 -10 28 12 -13 -14 14 -16 16 -18 -19 19 -21 21 -23 -24 24 -26 -27 -28 -29 -30 -31
leaf_value=0.014250956890550909 -0.040652828190337206 -0.03386610081928814 0.044261177308882009 0.017696637161859936 0.026234044994950516 -0.031239188173140604 -0.019444045888880598 -0.020131758699639127 -0.032800739990329314 0.012929795310244279 0.033331830192337729 -0.025133743155514063 -0.011363849442051346 0.04642032565286907 0.036016943081763418 0.028783319149700039 -0.0022210763176690133 -0.031977478865879407 -0.043230248024966347 0.012740567477797251 -0.01313659630742565 0.021994099522820817 -0.034718840067958126 -0.0077088549396783189 0.02677355382259965 -0.022029345786203677 0.034164682270279897 0.0072136881795227198 -0.019570013910998559 0.047749950941568552
leaf_weight=112.2406869083643 772.83877630531788 414.24328392744064 402.7620190680027 114.04638989269733 131.81494258344173 54.353481218218803 108.41523009538651 561.4734712690115 107.65179316699505 55.724425315856934 63.056367307901382 24.976145684719086 131.29808528721333 8.3321150690317136 30.66446290910244 1378.3181570321321 72.096215963363647 22.776847347617149 22.745099484920502 36.972173735499382 185.94505508244038 58.809561103582382 9.6102684289216977 88.476579993963242 52.929461121559143 60.714058265089989 11.761562362313269 218.89508080482483 72.627566635608673 4.9343070387840262
leaf_count=459 3505 1804 1845 467 551 225 441 2329 456 226 258 104 529 35 128 5827 294 92 93 154 755 238 39 358 214 246 48 895 297 20
internal_value=-1.74764e-06 0.00680038 0.0117921 0.00810513 0.0132976 0.016999 -0.0226699 -0.0135703 -0.00570699 0.0208685 0.00104964 0.022747 0.00529649 0.023421 0.00154175 0.024724 0.0268343 0.010347 0.0153802 -0.00857758 0.002422 -0.0046954 0.0283436 -0.00549583 0.0051982 -0.0137692 -0.0190177 0.0130548 -0.00546012 -0.0329054
internal_weight=5391.5 4618.66 3949.67 3546.9 2861.43 2394.98 668.999 685.476 466.453 1927.37 467.603 1799.02 413.25 1774.04 99.7106 1674.33 1460.02 214.309 191.532 59.7173 358.801 244.755 1387.93 249.821 141.406 69.0462 573.235 281.951 128.352 419.178
internal_count=22932 19427 16590 14745 11909 9993 2837 2836 1916 8086 1907 7563 1682 7459 409 7050 6160 890 798 247 1460 993 5866 1013 572 281 2377 1153 523 1824
is_linear=0
shrinkage=0.03


Tree=16
num_leaves=31
num_cat=0
split_feature=35 9 87 4 2 49 49 5 1 45 8 43 13 61 65 81 5 0 7 6 37 9 8 8 0 1 5 35 7 6
split_gain=1579.68 714.77 505.965 419.133 212.867 155.597 130.149 125.309 109.016 102.235 111.606 79.458 62.9434 47.6784 73.6559 80.3293 72.7215 56.5008 57.8924 54.711 44.014 39.9677 43.859 51.2471 36.087 36.6359 35.5213 34.8419 34.39 34.7612
threshold=0.13004900000000003 2062.5000000000005 1.0000000180025095e-35 -0.0033159999999999995 2.5402699550000007 0.15150000000000002 0.06950000000000002 2459169.5617950005 10.821131050000002 -0.028104999999999995 18.420927645000003 0.33472000000000007 1.1622500000000002 16.173902500000004 12.062250000000002 1.2027500000000002 2459084.5605560006 287.82439000000005 2237.5000000000005 1.9151000000000002 0.010560000000000002 14590.240000000002 11.927650000000002 22.305000000000003 129.37611980000003 48.193386000000011 2459035.1775295003 0.033115000000000012 0.16435000000000002 1.0000000180025095e-35
decision_type=2 2 2 2 2 2 2 2 2 2 2 2 2 2 2 2 2 2 2 2 2 2 2 2 2 2 2 2 2 2
left_child=1 2 3 8 6 9 -5 -3 28 10 13 12 -11 14 15 17 -17 18 -6 -18 -15 22 -9 -24 -10 -26 -16 -13 -1 -30
right_child=-2 7 -4 4 5 -7 -8 21 24 11 -12 27 -14 20 26 16 19 -19 -20 -21 -22 -23 23 -25 25 -27 -28 -29 29 -31
leaf_value=0.039249115976079954 -0.040008786169219553 -0.032239979364419837 0.043643984845765108 0.0047308606715881288 0.035199449431897276 -0.0078547736289765972 -0.028613124818974586 -0.013546746608444999 0.010113244152587034 -0.0409858086452798 -0.0062625230229268278 0.041489606944862624 0.016733659817256726 0.035425444917455085 0.0041382180383150915 -0.023605478791058232 -0.021075858435144965 0.012827259305650729 0.005855334290693754 0.017573778330369036 -0.016762128210183087 -0.031954098327833282 0.022897223216027097 -0.036898238399070638 -0.023346791597136842 0.0012059773453342538 0.033721353067302895 -0.018244125099130568 -0.062154894805469936 0.0090958734471955002
leaf_weight=33.589620739221573 761.88712503015995 415.0572833865881 396.30163183808327 426.34130968153477 316.71726812422276 205.61204738914967 139.93189215660095 104.96665872633457 37.053099811077118 58.139156371355057 124.64747203886509 32.891576692461967 24.032689914107323 329.68532554805279 40.198545813560486 68.682873472571373 39.298157468438148 336.27806954085827 74.799844920635223 204.47470754384995 15.215792343020437 42.190074384212494 87.210066556930542 15.138818100094793 472.20602494478226 61.86027318239212 400.21812491118908 11.992599815130232 6.7418865859508506 71.710705563426018
leaf_count=143 3505 1824 1845 1739 1357 831 593 428 152 243 509 136 100 1402 167 279 159 1406 309 852 62 172 352 61 1970 255 1716 49 27 289
internal_value=-1.90232e-06 0.00663418 0.0115016 0.0078954 0.0129556 0.0170397 -0.00350878 -0.0221398 -0.0132085 0.0195038 0.0212025 -0.00657081 -0.0241047 0.0230778 0.0207379 0.0163842 0.00366087 0.0218465 0.0295932 0.0113431 0.0331231 -0.00533788 7.87009e-05 0.0140526 -0.0185166 -0.0205029 0.0310212 0.0255294 0.0138483 0.00297288
internal_weight=5355.07 4593.18 3928.62 3532.32 2849.16 2282.88 566.273 664.563 683.162 2077.27 1950.22 127.056 82.1718 1825.57 1480.67 1040.25 312.456 727.795 391.517 243.773 344.901 249.506 207.316 102.349 571.119 534.066 440.417 44.8842 112.042 78.4526
internal_count=22932 19427 16590 14745 11909 9577 2332 2837 2836 8746 8218 528 343 7709 6245 4362 1290 3072 1666 1011 1464 1013 841 413 2377 2225 1883 185 459 316
is_linear=0
shrinkage=0.03


Tree=17
num_leaves=31
num_cat=0
split_feature=35 9 87 4 65 45 43 2 1 49 2 8 6 13 15 0 5 43 37 35 4 13 4 18 1 23 133 25 12 65
split_gain=1507.14 677.741 432.07 464.209 329.456 132.592 131.401 107.354 103.384 70.9207 73.4201 93.2463 75.752 61.593 56.231 47.6445 47.2917 41.6815 40.8144 53.1806 40.7375 37.7884 35.553 34.6601 34.9459 35.3733 41.0935 32.9551 49.1955 36.4353
threshold=0.13004900000000003 869.35500000000013 1.0000000180025095e-35 -0.0033159999999999995 11.046300000000002 -0.033079999999999991 0.070625000000000007 1.2370173250000003 10.821131050000002 0.17750000000000002 3.1461080000000003 16.409410350000005 2.8585520000000004 1.1000650000000003 -4.7499999999999991 287.82439000000005 2459141.0777430008 8.5271550000000023 0.010560000000000002 0.020033000000000006 -0.00023214999999999998 1.0803500000000004 -0.00014904999999999996 0.014700000000000001 48.193386000000011 -0.070501499999999981 1.2316515000000001 -1.2549999999999997 3.9105000000000003 11.521900000000002
decision_type=2 2 2 2 2 2 2 2 2 2 2 2 2 2 2 2 2 2 2 2 2 2 2 2 2 2 2 2 2 2
left_child=1 2 3 8 14 9 -7 -6 -1 10 12 17 -5 -14 15 22 -9 18 19 27 -19 -8 -3 24 25 -10 -27 28 29 -12
right_child=-2 4 -4 5 7 6 21 16 23 -11 11 -13 13 -15 -16 -17 -18 20 -20 -21 -22 -23 -24 -25 -26 26 -28 -29 -30 -31
leaf_value=0.013973572536774474 -0.039393910972827073 -0.035696780382941488 0.043060944706975843 0.01254048155754544 -0.018307592452310718 -0.034916475978475296 0.0010883496928757062 -0.011069333584084342 -0.023274583532836644 -0.010160039573024266 -0.0095296987490396737 -0.0044153669625806649 -0.039291111390340479 0.041629266607572608 0.045440644944479608 -0.03067345348277245 0.02557376551955853 -0.016316312720732196 -0.02749027272616511 0.03815323392857866 0.022132432530679133 0.041924243797612205 -0.009520639960655981 0.034414376048926158 0.0018839738705322441 0.053805260367780779 -0.032546241746488083 0.040461020504577526 0.023591797681911483 0.022085220428823452
leaf_weight=110.1695174574852 750.73454460501671 59.553034648299217 385.27190758287907 384.34841921925545 85.785633578896523 89.600935339927673 52.179222002625465 36.930881485342979 468.57551230490208 79.82553143799305 75.606669500470161 116.13520883023739 46.505731388926506 10.349573865532873 10.276522040367125 504.89807468652725 223.74813038110733 45.320499777793884 13.343302458524702 238.80561278760433 54.777773171663284 33.481021136045456 216.35821223258972 11.215946450829504 64.593001037836075 11.69090446829796 8.6148257553577405 86.821179673075676 984.48871751129627 57.957694739103317
leaf_count=453 3505 254 1824 1586 352 377 214 155 1965 322 311 480 192 43 45 2186 926 185 54 1020 230 138 906 46 266 47 35 386 4184 245
internal_value=-1.90702e-06 0.00647312 0.0131287 0.00934074 -0.0135932 0.0155925 -0.00951776 0.0108027 -0.0126102 0.0175981 0.018646 0.0215166 0.00775945 -0.0245609 -0.0242777 -0.0251953 0.0203825 0.0234507 0.0247372 0.0252199 0.00472438 0.0170494 -0.0151705 -0.0177966 -0.0188546 -0.0215947 0.0171701 0.0226565 0.0212739 0.00418899
internal_weight=5317.96 4567.23 3429.68 3044.41 1137.55 2369.55 175.261 346.465 674.86 2194.29 2114.46 1673.26 441.204 56.8553 791.086 780.809 260.679 1557.12 1457.02 1443.68 100.098 85.6602 275.911 564.69 553.474 488.881 20.3057 1204.87 1118.05 133.564
internal_count=22932 19427 14603 12779 4824 9967 729 1433 2812 9238 8916 7095 1821 235 3391 3346 1081 6615 6200 6146 415 352 1160 2359 2313 2047 82 5126 4740 556
is_linear=0
shrinkage=0.03


Tree=18
num_leaves=31
num_cat=0
split_feature=35 9 15 4 2 87 5 5 8 45 49 0 3 5 41 16 4 43 8 65 6 65 6 13 6 2 37 2 5 2
split_gain=1438.48 646.432 472.407 303.741 234.837 173.788 116.787 113.205 109.899 107.342 100.334 64.2609 56.2132 63.2249 53.83 52.3517 50.0872 46.5964 42.6734 80.7748 42.1615 40.5845 40.3292 41.2493 39.6694 51.3706 38.9888 38.2197 56.1952 38.0526
threshold=0.13004900000000003 2062.5000000000005 -7.4499999999999993 -0.00095964999999999993 2.5402699550000007 1.0000000180025095e-35 2459302.3073100005 2459355.2404325004 19.958829250000004 -0.33912499999999995 0.094500000000000015 288.78574000000003 1.5505000000000005e-05 2459560.1660925006 0.22253000000000003 0.00099500000000000022 -0.00021619999999999997 0.070625000000000007 3.1454823500000004 11.929700000000002 3.3529000000000004 10.623150000000001 3.3965000000000001 1.1000650000000003 6.0605000000000002 10.221312010000002 0.018646500000000003 46.155884395000008 2459169.5617950005 9.1554379000000008
decision_type=2 2 2 2 2 2 2 2 2 2 2 2 2 2 2 2 2 2 2 2 2 2 2 2 2 2 2 2 2 2
left_child=1 2 3 5 9 7 -3 15 10 12 16 -12 -5 -14 17 -1 27 -13 24 22 -16 -8 23 -20 26 -26 -18 28 -6 -19
right_child=-2 6 -4 4 8 -7 21 -9 -10 -11 11 14 13 -15 20 -17 18 29 19 -21 -22 -23 -24 -25 25 -27 -28 -29 -30 -31
leaf_value=-0.014842768793236283 -0.038805912897631793 -0.029713968178817173 0.039677708651555392 0.0090280501251932613 -0.009399136157959103 0.042238976012378013 -0.017608849250833832 0.031517022346649853 -0.015049807206367663 -0.033011894353489266 0.028979433579711583 -0.040831104574440537 -0.026017624641236175 0.020302591426161233 -0.0047134383493255688 0.028889591456637359 0.034448302932592045 -0.022785756005955973 0.019123816248267422 0.030638732020910515 0.020417943915772674 0.0094167075103276064 0.021311602650194189 -0.010062810283940056 -0.045148834677245196 0.034643126847104654 -0.052199580017350915 0.033155396627846806 0.023494258104156163 0.029921480770848913
leaf_weight=799.78501787781715 739.41812179982662 452.64176352322102 455.32128591835499 286.71063850820065 113.28965359926224 59.468282252550125 88.565563574433327 53.547721326351166 89.641722768545151 100.6881051659584 87.621030926704407 45.63814389705658 103.87657631933689 35.613550275564194 121.66875164210796 25.418823570013046 491.98996198177338 27.149483904242516 68.784134596586227 338.83915205299854 118.68597018718719 114.8752593100071 154.90932986140251 118.93638162314892 13.539719909429552 15.661245524883268 4.7185837626457205 51.988574326038361 79.578197404742241 22.581390500068665
leaf_count=3331 3505 2008 2132 1173 470 289 363 226 368 433 361 193 423 147 494 104 2141 110 291 1470 494 466 653 488 56 68 19 224 339 93
internal_value=-2.02084e-06 0.00631546 0.0109662 0.00715517 0.0126326 -0.00739394 -0.0212284 -0.0107528 0.017401 -0.00515297 0.0189519 0.00610057 0.00142858 -0.0141915 0.000129382 -0.0134957 0.0226983 -0.0189413 0.0252073 0.0202526 0.00769631 -0.00234855 0.00998146 0.000631689 0.0316274 -0.00235431 0.0336252 0.0103265 0.00417284 0.00114712
internal_weight=5281.15 4541.73 3885.65 3430.33 2492.11 938.22 656.083 878.752 1965.22 526.889 1875.58 423.345 426.201 139.49 335.724 825.204 1452.23 95.369 1207.38 681.469 240.355 203.441 342.63 187.721 525.91 29.201 496.709 244.856 192.868 49.7309
internal_count=22932 19427 16590 14458 10508 3950 2837 3661 8332 2176 7964 1745 1743 570 1384 3435 6219 396 5186 2902 988 829 1432 779 2284 124 2160 1033 809 203
is_linear=0
shrinkage=0.03


Tree=19
num_leaves=31
num_cat=0
split_feature=35 15 2 4 8 87 49 45 2 5 9 65 79 65 6 37 0 30 9 1 41 5 7 4 45 12 41 6 5 2
split_gain=1373.52 612.173 534.505 294.411 166.448 146.864 144.387 128.691 111.359 95.6058 73.5569 64.7009 110.587 78.181 57.7559 53.6515 50.7449 50.2312 46.9422 53.5435 43.6149 43.3014 64.466 43.9398 42.0233 69.5913 48.7496 39.2367 38.2512 37.4157
threshold=0.13004900000000003 -25.899999999999995 1.8095858500000002 -0.00095964999999999993 21.311500000000006 1.0000000180025095e-35 0.094500000000000015 -0.36198999999999998 4.6194230215000003 2459413.5545065007 5526.9350000000004 12.464450000000001 146.63250000000002 10.802150000000001 1.5555000000000001 0.012659500000000002 288.78574000000003 0.92250000000000021 2960.8900000000008 10.821131050000002 0.2950850000000001 2454964.5635000006 2.3980000000000006 -0.011882999999999999 -0.053714999999999992 4.5050050000000015 0.40391000000000005 4.4137500000000012 2459035.1775295003 14.267486950000002
decision_type=2 2 2 2 2 2 2 2 2 2 2 2 2 2 2 2 2 2 2 2 2 2 2 2 2 2 2 2 2 2
left_child=1 2 7 5 6 9 10 18 20 21 11 12 15 27 -15 24 -10 -18 19 -1 -8 22 -4 -23 -5 -26 -27 -14 -13 -25
right_child=-2 -3 3 4 -6 -7 8 -9 16 -11 -12 28 13 14 -16 -17 17 -19 -20 -21 -22 23 -24 29 25 26 -28 -29 -30 -31
leaf_value=0.0091092683028395176 -0.038242706422529228 0.038147079655711895 0.024906406422937104 0.028297229447893466 -0.025354314925615212 0.041728451803778308 -0.0387044607390062 -0.037952466953942075 0.032015879633043573 0.03215662431163388 -0.022217059222570616 0.0016799018762512171 -0.013428816098441567 -0.019545904109070981 0.020013325313636521 -0.032828281083431721 0.0099371481881531196 -0.023799233434556515 -0.023107276544162048 -0.013633420303286028 -0.0059739740155932454 -0.024551655529225055 -0.023507722567999052 -0.028675160254810813 0.033291344350912321 -0.039065873882491615 0.041249011694927999 0.016594291335350633 0.033632551879137565 -0.0037474699199554645
leaf_weight=142.54893258213997 727.9718844294548 481.18134531378746 60.125123724341393 639.98409177362919 95.50273172557354 51.522007718682289 67.763313367962837 229.26574793457985 74.500489830970764 44.456146061420441 37.858418539166451 37.190273731946945 175.60088443756104 37.11188417673111 316.38680072128773 14.369756281375883 231.65642330050468 47.941152095794678 212.9086922109127 268.94759003818035 79.781265616416931 294.34724070131779 42.075016185641289 67.678833156824112 40.520110175013542 32.325481608510017 8.6143550723791105 50.426337689161301 361.25272996723652 271.9324274212122
leaf_count=587 3505 2268 249 2785 399 255 291 1027 310 190 157 156 724 152 1332 59 961 198 921 1119 334 1252 175 278 173 136 37 211 1571 1120
internal_value=-1.93512e-06 0.00616272 0.00234814 0.00800488 0.0134374 -0.0073288 0.0150815 -0.0187298 0.000890846 -0.0105667 0.0191455 0.0200592 0.016851 0.00704929 0.0158602 0.0245708 0.0100149 0.00415255 -0.0116717 -0.00575499 -0.0210062 -0.0131467 0.00497468 -0.016068 0.0257141 0.00541959 -0.0221664 -0.00673071 0.0306501 -0.00871514
internal_weight=5243.75 4515.78 4034.59 3180.92 2348.79 832.137 2253.28 853.671 501.643 780.615 1751.64 1713.78 1315.34 579.526 353.499 735.814 354.098 279.598 624.405 411.497 147.545 736.159 102.2 633.959 721.444 81.4599 40.9398 226.027 398.443 339.611
internal_count=22932 19427 17159 13505 9986 3519 9587 3654 2094 3264 7493 7336 5609 2419 1484 3190 1469 1159 2627 1706 625 3074 424 2650 3131 346 173 935 1727 1398
is_linear=0
shrinkage=0.03


Tree=20
num_leaves=31
num_cat=0
split_feature=35 15 2 4 49 87 45 8 5 65 2 8 3 5 8 6 2 61 45 5 7 9 1 6 30 4 75 7 6 45
split_gain=1311.95 586.01 505.608 278.523 162.99 135.516 124.083 108.024 101.301 85.3604 131.1 86.3341 65.1648 55.1374 53.3906 54.8856 45.4834 45.372 81.9337 54.6804 65.1603 44.6198 50.4502 44.45 42.8972 38.2078 37.1948 36.101 36.0272 33.127
threshold=0.13004900000000003 -25.899999999999995 1.8095858500000002 -0.00060769999999999997 0.16750000000000004 1.0000000180025095e-35 -0.36198999999999998 21.311500000000006 2459413.5545065007 12.172250000000002 3.0532564015000001 3.4129061500000004 1.5505000000000005e-05 2459035.1775295003 1.8805525000000001 6.0605000000000002 8.6726739900000016 9.3358330000000027 -0.018479999999999996 2454964.5635000006 2.3980000000000006 2960.8900000000008 10.821131050000002 2.6163022500000008 0.85850000000000015 -0.0087959999999999983 0.21100000000000002 94.300000000000026 5.1720950000000006 -0.14700999999999997
decision_type=2 2 2 2 2 2 2 2 2 2 2 2 2 2 2 2 2 2 2 2 2 2 2 2 2 2 2 2 2 2
left_child=1 2 6 5 7 8 21 9 17 10 12 14 29 -11 15 -12 -17 19 25 20 28 22 -1 -13 26 -19 -25 -24 -4 -5
right_child=-2 -3 3 4 -6 -7 -8 -9 -10 13 11 23 -14 -15 -16 16 -18 18 -20 -21 -22 -23 27 24 -26 -27 -28 -29 -30 -31
leaf_value=0.0088406969054066233 -0.037702401026755678 0.037551231426742743 0.036519661371791308 0.012406775881172 -0.017499937276794043 0.041328146244642511 -0.037287016606077979 -0.020516155311241454 0.026146505210044534 -0.0066358670462557364 0.02054457648394389 -0.0064724869780791181 -0.022892304889217948 0.031358298790513627 0.032300672445078345 -0.04583683973899353 0.01243632404178353 -0.018961333932307492 -0.030733005884325666 -0.017883993197853418 -0.023324756523709165 -0.022541201922855247 -0.029842243931503476 0.019883716401600419 -0.017738204877764209 0.032090750144824799 -0.019272923343606148 -0.0059550644306540943 -0.020703075128077675 -0.027767651490254494
leaf_weight=142.47418719530106 716.42720766365528 474.25705508887768 49.825057506561279 137.59904584288597 141.80324441194534 51.885118901729584 226.40013857185841 71.404324188828468 69.869463235139847 37.382552251219749 362.83177271485329 139.4422021061182 111.63748425245285 427.41935414075851 363.52707467973232 21.602962240576744 27.274089381098747 16.413080826401711 38.654686436057091 599.91259761154652 41.696883246302605 211.72585192322731 81.95181043446064 295.95532912015915 35.564103364944458 67.264959216117859 23.57196894288063 186.58609245717525 12.358409494161604 21.336899146437645
leaf_count=587 3505 2268 207 572 597 261 1027 295 301 158 1567 577 466 1865 1589 91 116 70 164 2511 174 921 348 1253 150 282 96 771 51 92
internal_value=-2.05812e-06 0.00601393 0.00228905 0.00780199 0.0136182 -0.00580992 -0.0182674 0.0157432 -0.00853959 0.0170344 0.0136343 0.0176744 -0.00532556 0.0283025 0.0239222 0.0165243 -0.0133196 -0.0114732 0.00539017 -0.0144043 0.00569085 -0.0113527 -0.0055891 0.00788017 0.0135164 0.0220771 0.0169951 -0.0132449 0.0251472 0.00701342
internal_weight=5206.06 4489.63 4015.37 3166.23 2218.35 947.88 849.138 2076.55 895.995 2005.14 1540.34 1269.77 270.573 464.802 775.236 411.709 48.8771 826.126 122.333 703.793 103.88 622.738 411.012 494.534 355.091 83.678 319.527 268.538 62.1835 158.936
internal_count=22932 19427 17159 13505 9484 4021 3654 8887 3760 8592 6569 5439 1130 2023 3363 1774 207 3459 516 2943 432 2627 1706 2076 1499 352 1349 1119 258 664
is_linear=0
shrinkage=0.03


Tree=21
num_leaves=31
num_cat=0
split_feature=35 15 2 49 4 8 45 87 5 4 2 9 13 41 63 65 8 49 65 30 9 39 65 43 5 7 61 71 2 6
split_gain=1253.58 561.198 479.205 265.492 186.471 110.275 109.182 102.672 105.907 73.7296 87.6064 72.8758 91.6273 66.9368 90.3801 63.7101 103.27 61.6721 61.4839 60.1665 59.0195 58.738 52.4362 48.7313 48.4741 42.49 55.0379 45.0502 42.4669 37.552
threshold=0.13004900000000003 -25.899999999999995 1.65632705 0.095500000000000015 -0.00027714999999999993 21.311500000000006 -0.36198999999999998 1.0000000180025095e-35 2459355.2404325004 -0.0066029999999999986 4.4241887000000011 31.662600000000001 0.34394000000000008 0.91824500000000009 15.690500000000002 12.464450000000001 3.8344104500000005 0.19250000000000003 11.144700000000002 0.96650000000000003 493.04500000000002 -0.0032944999999999993 12.300200000000002 2.9356950000000004 2459035.1775295003 0.16435000000000002 8.8041570000000018 -0.091499999999999984 1.0000000180025095e-35 19.131885700000002
decision_type=2 2 2 2 2 2 2 2 2 2 2 2 2 2 2 2 2 2 2 2 2 2 2 2 2 2 2 2 2 2
left_child=1 2 6 4 7 13 28 8 11 -5 -11 12 -4 14 15 16 20 19 -18 23 -6 -16 -13 -12 -17 -14 27 -27 -1 -28
right_child=-2 -3 3 9 5 -7 -8 -9 -10 10 17 22 25 -15 21 24 18 -19 -20 -21 -22 -23 -24 -25 -26 26 29 -29 -30 -31
leaf_value=0.022057125659009642 -0.037183263368485986 0.036978089592340585 -0.023289684565151274 -0.02349686451507298 0.032961273313657037 -0.021473355961119166 -0.037327820897903097 0.040913835101874255 0.021815497739237619 -0.021737727970277881 0.019991248788039699 -0.032398538680920394 0.042420155959198493 0.03320503182119907 0.024830313551109252 -0.011237970202441666 -0.0047005770511112611 -0.01507308391318319 0.0160013906943418 -0.031647153463307369 0.0021959787051305068 -0.043367910507442979 0.012715076596514512 -0.005600924422256748 0.032236433354742355 -0.011272476398388397 0.032343376498322973 0.028673368495951361 -0.014041709275803315 -0.033966682472724205
leaf_weight=31.041943311691284 704.81286704540253 467.26564300060272 122.18734404444695 191.59542520344257 278.64459224045277 60.533188372850418 211.62442792952061 52.158349499106407 129.93008458614349 158.41520392894745 256.28038112819195 139.14637057483196 28.489163994789124 275.68022355437279 16.667231291532516 24.805532291531563 258.53281798958778 117.43724723160267 257.93281000852585 29.041772603988647 70.272854179143906 35.737144604325294 27.824524596333504 90.648680165410042 332.32812759280205 158.79542130231857 69.673967406153679 30.249921724200249 531.7139418721199 8.6393612623214704
leaf_count=130 3505 2268 519 818 1232 250 973 267 559 682 1074 583 121 1219 73 105 1073 486 1092 122 297 152 115 371 1468 663 301 124 2253 37
internal_value=-2.14051e-06 0.00586925 0.00223161 0.00732499 0.0124536 0.01825 -0.0189583 0.000279418 -0.00268508 -0.0071365 -0.00232758 -0.00812666 -0.00143481 0.0198008 0.0169023 0.0185561 0.0141565 0.00390431 0.00563838 0.00983204 0.0267651 -0.0216774 -0.0248807 0.0133043 0.0292168 0.00759142 0.00388015 -0.00488058 -0.0120505 0.0250282
internal_weight=5168.11 4463.29 3996.03 3221.65 2378.23 1611.13 774.38 767.095 714.936 843.419 651.823 585.006 418.035 1550.6 1274.92 1222.52 865.383 493.408 516.466 375.971 348.917 52.4044 166.971 346.929 357.134 295.848 267.359 189.045 562.756 78.3133
internal_count=22932 19427 17159 13803 10250 6961 3356 3289 3022 3553 2735 2463 1765 6711 5492 5267 3694 2053 2165 1567 1529 225 698 1445 1573 1246 1125 787 2383 338
is_linear=0
shrinkage=0.03


Tree=22
num_leaves=31
num_cat=0
split_feature=35 87 2 4 49 49 8 65 2 3 8 6 8 26 7 17 41 7 6 5 9 37 3 8 8 8 6 5 7 65
split_gain=1198.45 537.951 446.173 294.706 155.936 127.355 94.0891 80.3628 120.27 69.0416 65.5599 81.7532 69.1247 63.1201 59.9049 51.0237 50.4276 50.111 51.8355 43.4597 42.3546 41.7545 40.7717 40.7452 39.8305 64.7995 63.1789 36.9432 36.7441 49.4711
threshold=0.10195850000000002 1.0000000180025095e-35 1.8095858500000002 -0.0066029999999999986 0.15150000000000002 0.06950000000000002 18.420927645000003 12.464450000000001 3.0532564015000001 1.5505000000000005e-05 4.3303300000000009 15.358900000000002 1.135 1.0000000180025095e-35 0.16435000000000002 -0.010136194999999999 12.929430000000002 112.35000000000001 2.6320327500000005 2459035.1775295003 42.475080250000012 0.0098850000000000014 0.00076165000000000011 14.608448550000002 0.64400000000000013 2.1502608000000003 2.2555000000000001 2459281.5572195007 390.15000000000003 11.191450000000001
decision_type=2 2 2 2 2 2 2 2 2 2 2 2 2 2 2 2 2 2 2 2 2 2 2 2 2 2 2 2 2 2
left_child=1 2 5 13 6 15 7 8 9 -5 11 12 17 14 -4 24 21 -10 -19 -9 -11 -14 -18 -2 -1 26 -26 -27 -8 -30
right_child=23 -3 3 4 -6 -7 28 19 10 20 -12 -13 16 -15 -16 -17 22 18 -20 -21 -22 -23 -24 -25 25 27 -28 -29 29 -31
leaf_value=-0.025199647603141296 -0.0077063447534243251 0.040893793580191289 0.04596639106852083 0.0094684615706650994 -0.0097778016574830533 -0.032738718609565218 0.022402196145652694 0.0004780878625847607 0.023203788523916299 0.023382664563834327 0.0079053068705502005 -0.032678058803468982 0.02888415155442901 -0.020691846725434723 -0.0063748158465172329 0.043555380790321688 0.024550549676930992 0.021671875799391779 -0.023562837206957874 0.031492009801976133 -0.025338172622876153 -0.020918205227820102 -0.027412568971354179 -0.037584342514122508 0.027238365691786458 -0.021590055163926525 -0.037177601986258899 -0.0019513984560657659 -0.030644636948082192 0.0043886094507762973
leaf_weight=119.09367895126343 43.719606399536133 362.33877465128899 25.012071922421455 159.76257266104221 273.75598612427711 286.53357212245464 31.452202349901199 45.93260695040226 80.773816719651222 18.399122133851051 529.82796999812126 25.024742558598518 755.25088107585907 344.69317542016506 92.308550581336021 16.606030344963074 26.592434674501419 34.290300711989403 68.037410795688629 354.55795571208 126.25202405452728 15.461332157254217 27.793012335896492 680.02966794371605 79.533588513731956 171.49600540101528 16.555904030799866 173.35074086487293 73.548627659678459 71.586406424641609
leaf_count=507 194 1861 108 669 1140 1326 131 192 349 82 2247 108 3346 1484 382 76 115 148 285 1590 529 65 114 3444 332 728 72 707 309 292
internal_value=-2.06566e-06 0.00587513 0.00273709 0.00792878 0.0116937 -0.0163915 0.0140983 0.0157406 0.0131254 -0.00412619 0.0164852 0.0208849 0.0222144 -0.0142227 0.00478402 -0.00826841 0.0259149 0.00553922 -0.00840456 0.027935 -0.0191411 0.0278851 -0.00200456 -0.0357795 -0.0098051 -0.00564714 0.0161397 -0.0117179 -0.00699432 -0.0133648
internal_weight=5129.57 4405.82 4043.48 3180.31 2718.3 863.17 2444.54 2267.96 1867.47 304.414 1563.05 1033.22 1008.2 462.014 117.321 576.636 825.098 183.102 102.328 400.491 144.651 770.712 54.3854 723.749 560.03 440.936 96.0895 344.847 176.587 145.135
internal_count=22932 19294 17433 13685 11711 3748 10571 9839 8057 1280 6777 4530 4422 1974 490 2422 3640 782 433 1782 611 3411 229 3638 2346 1839 404 1435 732 601
is_linear=0
shrinkage=0.03


Tree=23
num_leaves=31
num_cat=0
split_feature=35 87 9 4 2 49 1 8 45 5 41 6 65 79 5 6 12 49 41 3 13 65 69 0 77 2 75 2 5 1
split_gain=1145.93 522.044 421.084 279.687 174.834 134.768 87.0804 82.6023 78.4519 72.5074 71.4358 69.8269 52.5927 94.2057 80.5858 67.7145 62.7865 127.846 110.93 49.0429 46.0576 37.5702 37.1663 36.9028 38.4855 36.8308 32.8553 30.9947 30.7419 32.0912
threshold=0.13004900000000003 1.0000000180025095e-35 2579.9150000000004 -0.0066029999999999986 1.7623752500000001 0.094500000000000015 11.676374050000002 18.420927645000003 -0.46765499999999999 2459169.5617950005 0.060780000000000008 4.5417303500000008 12.544200000000002 123.81530000000002 2459141.0777430008 1.7043857500000001 4.5502050000000009 0.049500000000000009 0.84662000000000004 0.00015005000000000002 1.0000000180025095e-35 10.779500000000001 0.040500000000000008 129.37611980000003 -0.083499999999999991 40.124940850000009 0.25200000000000006 4.7370150000000004 2459035.1775295003 46.669264000000005
decision_type=2 2 2 2 2 2 2 2 2 2 2 2 2 2 2 2 2 2 2 2 2 2 2 2 2 2 2 2 2 2
left_child=1 2 3 6 8 7 -1 12 -5 -4 -7 -12 13 16 19 -16 20 -18 -19 -15 -6 -17 -9 -8 -25 -21 -22 -13 29 -14
right_child=-2 -3 9 4 5 10 23 22 -10 -11 11 27 28 14 15 21 17 18 -20 25 26 -23 -24 24 -26 -27 -28 -29 -30 -31
leaf_value=0.014110821372535607 -0.036208289165822451 0.04045890747277766 -0.03099206900712647 -0.0015592509412705167 -0.015001015703288422 -0.024931562561380016 0.016448776763736864 0.012437842170443653 -0.033932355574210003 -0.0080979109511933895 -0.0032427292553859756 -0.032720510906159316 0.021598829718514803 0.0063722630056630607 -0.014632883127448355 0.0051490693353172228 0.027719485677621912 -0.04021779263328102 0.012531838403904998 -0.035755965997320643 0.032070248916841043 0.024515352641459574 -0.018344409434373935 -0.021636650619474791 0.033352694158775807 0.023541854319182976 -0.030778828015177055 0.023254421916724163 0.031690862029785397 -0.036626736660399221
leaf_weight=89.316450491547585 681.44228155910969 355.35217833518982 330.96137037873268 294.71324218809605 20.375515133142471 86.187522709369659 26.17608118057251 61.367646455764771 87.336950033903122 199.58042512834072 342.95321035385132 9.4194129705429059 27.95998652279377 69.473920270800591 68.005004242062569 138.39159505069256 211.62311898171902 59.692550018429756 89.942429170012474 71.075295731425285 466.63754768669605 258.6627167314291 83.109759837388992 437.08209317922592 11.762933850288389 10.868626102805136 7.608060047030448 162.43585316836834 319.34751206636429 12.252496838569639
leaf_count=371 3505 1861 1555 1220 86 367 109 253 401 820 1422 39 116 294 278 583 949 255 395 290 2102 1119 345 1886 48 45 31 684 1452 51
internal_value=-2.09581e-06 0.00559298 0.00253705 0.00628853 0.00997931 0.0127867 -0.0130662 0.0165696 -0.00895977 -0.0223797 0.000346508 0.00457848 0.0182919 0.01578 0.00683869 0.0130278 0.0222203 0.0127126 -0.0085111 -0.0121702 0.0291645 0.0177653 -0.00526946 -0.0181763 -0.0201955 -0.027891 0.031062 0.0201864 0.0285781 0.00385786
internal_weight=5091.11 4409.67 4054.32 3523.78 2959.44 2577.39 564.338 1976.39 382.05 530.542 600.996 514.808 1831.92 1472.36 616.477 465.059 855.879 361.258 149.635 151.418 494.621 397.054 144.477 475.021 448.845 81.9439 474.246 171.855 359.56 40.2125
internal_count=22932 19427 17566 15191 12777 11156 2414 8644 1621 2375 2512 2145 8046 6427 2609 1980 3818 1599 650 629 2219 1702 598 2043 1934 335 2133 723 1619 167
is_linear=0
shrinkage=0.03


Tree=24
num_leaves=31
num_cat=0
split_feature=35 87 2 4 49 45 75 65 79 2 12 45 41 26 7 49 30 17 7 61 5 3 39 51 41 2 6 4 9 0
split_gain=1095.98 502.942 401.319 255.28 155.956 110.27 100.813 100.102 138.144 81.402 62.3904 97.0937 81.6954 57.2905 58.2478 55.495 50.3521 48.9917 46.3636 45.0398 43.6592 47.8641 40.8791 39.5424 34.6945 34.5833 34.5051 34.0198 38.1816 32.2813
threshold=0.13004900000000003 1.0000000180025095e-35 1.65632705 -0.0066029999999999986 0.094500000000000015 -0.36198999999999998 0.042500000000000003 11.101250000000002 123.81530000000002 4.5492021500000011 4.5502050000000009 -0.34935499999999992 0.74940000000000018 1.0000000180025095e-35 0.16435000000000002 0.19250000000000003 0.96650000000000003 -0.010136194999999999 2919.5000000000005 7.4649938000000011 2459281.5572195007 9.7150000000000017e-05 -0.0023384999999999999 -0.072499999999999981 0.2950850000000001 0.35839164000000007 3.5728077000000007 -0.00016154999999999997 267.03500000000003 298.6809550000001
decision_type=2 2 2 2 2 2 2 2 2 2 2 2 2 2 2 2 2 2 2 2 2 2 2 2 2 2 2 2 2 2
left_child=1 2 5 13 6 17 10 8 18 24 23 -12 22 14 -4 16 19 25 -8 -11 21 -9 -13 -5 -6 -1 -10 -27 -29 -21
right_child=-2 -3 3 4 9 -7 7 20 26 15 11 12 -14 -15 -16 -17 -18 -19 -20 29 -22 -23 -24 -25 -26 27 -28 28 -30 -31
leaf_value=0.013281974625247646 -0.035743560994955986 0.040045723941472683 0.044921832808923812 0.020870877461065387 -0.036197182756600998 -0.035722763776980825 0.035433841470753437 0.018598581784085733 -0.018915179087541596 -0.012438163709034011 0.019352684962756689 -0.00033032628649790378 0.035520628506750543 -0.019764528079075135 -0.0064668485768020071 -0.014230024154179947 -0.02916197218294516 0.042874497369557577 -0.012408764902542415 0.020172444704874865 0.023640929055969255 -0.015633868790963755 -0.04793428856790774 0.035852677834562058 -0.0083253783912710187 -0.028038393769802224 0.00052289472138010765 0.0148947387787353 -0.013076451703016228 -0.016141742849419081
leaf_weight=46.471666425466537 669.7700834274292 348.35393206775188 25.169680535793304 662.53729552030563 71.746268972754478 203.76455321907997 92.161941736936569 85.398582071065903 226.71720109879971 54.675517454743385 237.07335488498211 24.542611539363861 20.883206143975258 342.23785810172558 93.946185305714607 116.56984706223011 28.123294934630394 15.302470803260801 22.725331038236618 270.26781032979488 304.35417895019054 64.542622983455658 47.963611468672752 208.43530593812466 91.401972055435181 116.2187472730875 128.93033213913441 50.081078574061394 357.08834843337536 23.986641734838486
leaf_count=193 3505 1861 110 2954 319 973 414 371 945 224 1064 107 94 1491 390 485 119 71 95 1140 1326 267 205 941 391 500 543 204 1530 100
internal_value=-2.07546e-06 0.00546127 0.00247424 0.00714069 0.010567 -0.0167161 0.0145139 0.00706847 -0.00262961 -0.00221109 0.0202452 0.00914651 -0.0167623 -0.0135277 0.00439179 0.00386082 0.00945379 -0.0100977 0.0259703 0.0125662 0.0171132 0.00386312 -0.0318208 0.0244562 -0.0205823 -0.0115201 -0.0118684 -0.0137223 -0.00963605 0.0172122
internal_weight=5051.44 4381.67 4033.32 3244.39 2783.04 788.927 2126.27 924.83 470.535 656.771 1201.44 330.463 93.3894 461.354 119.116 493.623 377.053 585.162 114.887 348.93 454.295 149.941 72.5062 870.973 163.148 569.86 355.648 523.388 407.169 294.254
internal_count=22932 19427 17566 14095 12104 3471 9326 3961 1997 2778 5365 1470 406 1991 500 2068 1583 2498 509 1464 1964 638 312 3895 710 2427 1488 2234 1734 1240
is_linear=0
shrinkage=0.03


Tree=25
num_leaves=31
num_cat=0
split_feature=35 87 2 4 49 45 65 9 8 5 6 8 26 7 14 3 17 43 8 37 6 8 65 39 0 8 6 12 0 2
split_gain=1048.65 481.116 381.165 243.962 136.679 107.085 92.5633 143.346 95.2484 68.6753 64.03 60.7488 54.0222 55.3573 52.5997 52.1173 46.5936 45.2392 45.5718 44.1142 42.5065 39.5678 38.8929 42.1438 33.4952 33.002 35.5402 42.5949 34.5255 32.9734
threshold=0.10195850000000002 1.0000000180025095e-35 1.65632705 -0.0066029999999999986 0.16550000000000004 -0.36198999999999998 12.261050000000003 386.52800000000008 12.776400000000002 2459035.1775295003 15.358900000000002 0.90055300000000005 1.0000000180025095e-35 0.16435000000000002 1.7020000000000002 0.00031370000000000004 -0.010136194999999999 16.194540000000003 5.1920500000000009 0.0098850000000000014 2.1292127000000005 15.189650000000002 11.026650000000002 -0.00027849999999999994 292.58065500000004 1.8513500000000003 2.8182600000000004 4.4232600000000009 288.91041500000006 1.0000000180025095e-35
decision_type=2 2 2 2 2 2 2 2 2 2 2 2 2 2 2 2 2 2 2 2 2 2 2 2 2 2 2 2 2 2
left_child=1 2 5 12 6 16 7 8 10 -8 11 -5 13 -4 -10 22 29 18 19 25 -20 -2 23 24 -9 26 -13 -28 -29 -1
right_child=21 -3 3 4 -6 -7 9 15 14 -11 -12 17 -14 -15 -16 -17 -18 -19 20 -21 -22 -23 -24 -25 -26 -27 27 28 -30 -31
leaf_value=0.019905506632824553 -0.0075413249205396275 0.039652828890446572 0.044024895715866208 -0.0023211027793360452 -0.012167681959461447 -0.035448615514141447 -0.0056953399710230421 0.0012141430650293248 -0.020454953540373171 0.027830575498499429 -0.024360395252867033 0.031144618792684878 -0.019230178672496562 -0.0062757926539518134 0.022086411373597115 -0.024152824181513821 0.042242226851614453 -0.0028535285068817477 -0.011810223338200723 -0.028849090802729984 0.018337788883652568 -0.03632234370258166 0.015476792206262321 0.037635396920452778 -0.016983302291508854 0.030917423880799419 0.030360675921496591 0.025436556620367132 -0.0099198738620169778 -0.012883057891690697
leaf_weight=29.092498824000359 46.074681833386421 341.35722100734711 24.915835097432137 113.43135780096054 220.15437497198582 196.12032021582127 62.538367763161659 237.58632703125477 98.253037199378014 455.57781438529491 32.060239508748055 120.96969638764858 339.61631129682064 93.90269809961319 35.648609220981598 85.67124617099762 15.069101080298422 68.667329519987106 59.292019918560982 13.277655467391012 145.07843700051308 642.22618208825588 127.94712780416012 21.254364266991615 147.58176629245281 514.58564057946205 62.797022640705109 34.550699844956398 88.59448316693306 539.26754532754421
leaf_count=120 211 1861 110 484 929 950 261 1007 412 2059 140 551 1488 390 153 365 71 290 250 55 628 3427 542 93 629 2332 282 153 382 2307
internal_value=-2.15657e-06 0.00547158 0.00254249 0.00711995 0.0105027 -0.0162709 0.012479 0.00956097 0.0149208 0.0237839 0.0174903 0.018589 -0.0131388 0.00427209 -0.00912917 -0.00243054 -0.00982426 0.02073 0.0222884 0.0253969 0.00959124 -0.0343957 0.00105202 -0.00348909 -0.00575843 0.0262737 0.0184878 0.0102535 3.84505e-08 -0.0112047
internal_weight=5013.16 4324.86 3983.5 3203.95 2745.52 779.549 2525.36 2007.25 1387.21 518.116 1253.3 1221.24 458.435 118.819 133.902 620.041 583.429 1107.81 1039.15 834.775 204.37 688.301 534.37 406.422 385.168 821.498 306.912 185.942 123.145 568.36
internal_count=22932 19294 17433 13985 11997 3448 11068 8748 6112 2320 5547 5407 1988 500 565 2636 2498 4923 4633 3755 878 3638 2271 1729 1636 3700 1368 817 535 2427
is_linear=0
shrinkage=0.03


Tree=26
num_leaves=31
num_cat=0
split_feature=35 87 9 4 2 49 8 49 1 5 4 25 5 61 41 43 2 11 41 63 12 6 8 65 6 81 0 77 7 6
split_gain=1003.49 467.466 371.413 238.419 147.425 113.115 103.944 96.2518 76.4357 66.0256 56.9844 77.2612 60.3554 79.0622 51.0593 51.7198 42.4852 40.6659 37.0601 67.7052 45.2673 34.3846 33.1098 65.0362 36.3089 36.0476 32.8704 34.3475 32.413 57.9404
